{"learner":{"attributes":{"scikit_learn":"{\"_estimator_type\": \"regressor\"}"},"feature_names":["C8","C9","C1","C10","C5","C4","N7","C3","A10","C2","N5","A8","O2","E10","age_group_18-30"],"feature_types":["int","int","int","int","int","int","int","int","int","int","int","int","int","int","int"],"gradient_booster":{"model":{"cats":{"enc":[],"feature_segments":[],"sorted_idx":[]},"gbtree_model_param":{"num_parallel_tree":"1","num_trees":"200"},"iteration_indptr":[0,1,2,3,4,5,6,7,8,9,10,11,12,13,14,15,16,17,18,19,20,21,22,23,24,25,26,27,28,29,30,31,32,33,34,35,36,37,38,39,40,41,42,43,44,45,46,47,48,49,50,51,52,53,54,55,56,57,58,59,60,61,62,63,64,65,66,67,68,69,70,71,72,73,74,75,76,77,78,79,80,81,82,83,84,85,86,87,88,89,90,91,92,93,94,95,96,97,98,99,100,101,102,103,104,105,106,107,108,109,110,111,112,113,114,115,116,117,118,119,120,121,122,123,124,125,126,127,128,129,130,131,132,133,134,135,136,137,138,139,140,141,142,143,144,145,146,147,148,149,150,151,152,153,154,155,156,157,158,159,160,161,162,163,164,165,166,167,168,169,170,171,172,173,174,175,176,177,178,179,180,181,182,183,184,185,186,187,188,189,190,191,192,193,194,195,196,197,198,199,200],"tree_info":[0,0,0,0,0,0,0,0,0,0,0,0,0,0,0,0,0,0,0,0,0,0,0,0,0,0,0,0,0,0,0,0,0,0,0,0,0,0,0,0,0,0,0,0,0,0,0,0,0,0,0,0,0,0,0,0,0,0,0,0,0,0,0,0,0,0,0,0,0,0,0,0,0,0,0,0,0,0,0,0,0,0,0,0,0,0,0,0,0,0,0,0,0,0,0,0,0,0,0,0,0,0,0,0,0,0,0,0,0,0,0,0,0,0,0,0,0,0,0,0,0,0,0,0,0,0,0,0,0,0,0,0,0,0,0,0,0,0,0,0,0,0,0,0,0,0,0,0,0,0,0,0,0,0,0,0,0,0,0,0,0,0,0,0,0,0,0,0,0,0,0,0,0,0,0,0,0,0,0,0,0,0,0,0,0,0,0,0,0,0,0,0,0,0,0,0,0,0,0,0],"trees":[{"base_weights":[-1.1912493E-2,-5.1688784E-1,1.3917303E-1,-7.570566E-1,-3.2371968E-1,-1.20008685E-1,3.0422828E-1,-3.426157E-2,-1.6741628E-2,-0E0,-1.3755934E-2,-9.773658E-3,1.294317E-3,1.456961E-3,1.2391644E-2],"categories":[],"categories_nodes":[],"categories_segments":[],"categories_sizes":[],"default_left":[0,0,0,0,0,0,0,0,0,0,0,0,0,0,0],"id":0,"left_children":[1,3,5,7,9,11,13,-1,-1,-1,-1,-1,-1,-1,-1],"loss_changes":[1.0787808E2,1.4041351E1,4.6515E1,9.2502365E0,8.1562805E0,1.4350428E1,1.8012867E1,0E0,0E0,0E0,0E0,0E0,0E0,0E0,0E0],"parents":[2147483647,0,0,1,1,2,2,3,3,4,4,5,5,6,6],"right_children":[2,4,6,8,10,12,14,-1,-1,-1,-1,-1,-1,-1,-1],"split_conditions":[3E0,2E0,3E0,2E0,1E0,4E0,4E0,-3.426157E-2,-1.6741628E-2,-0E0,-1.3755934E-2,-9.773658E-3,1.294317E-3,1.456961E-3,1.2391644E-2],"split_indices":[2,4,4,10,14,8,3,0,0,0,0,0,0,0,0],"split_type":[0,0,0,0,0,0,0,0,0,0,0,0,0,0,0],"sum_hessian":[1.409E3,3.26E2,1.083E3,1.43E2,1.83E2,4.19E2,6.64E2,4.7E1,9.6E1,5.3E1,1.3E2,1.88E2,2.31E2,2.01E2,4.63E2],"tree_param":{"num_deleted":"0","num_feature":"15","num_nodes":"15","size_leaf_vector":"1"}},{"base_weights":[3.5258543E-3,-2.9876664E-1,2.8423563E-1,-6.15233E-1,-1.2509383E-1,3.7645355E-2,4.169822E-1,-2.8718375E-2,-1.4604651E-2,-8.235649E-3,9.298324E-4,-4.776952E-3,5.044861E-3,7.448561E-3,1.6691199E-2],"categories":[],"categories_nodes":[],"categories_segments":[],"categories_sizes":[],"default_left":[0,0,0,0,0,0,0,0,0,0,0,0,0,0,0],"id":1,"left_children":[1,3,5,7,9,11,13,-1,-1,-1,-1,-1,-1,-1,-1],"loss_changes":[1.18192215E2,3.602876E1,2.3244972E1,8.873497E0,1.0366431E1,6.5875664E0,1.0199142E1,0E0,0E0,0E0,0E0,0E0,0E0,0E0,0E0],"parents":[2147483647,0,0,1,1,2,2,3,3,4,4,5,5,6,6],"right_children":[2,4,6,8,10,12,14,-1,-1,-1,-1,-1,-1,-1,-1],"split_conditions":[4E0,3E0,4E0,3E0,3E0,4E0,5E0,-2.8718375E-2,-1.4604651E-2,-8.235649E-3,9.298324E-4,-4.776952E-3,5.044861E-3,7.448561E-3,1.6691199E-2],"split_indices":[5,2,2,3,4,12,5,0,0,0,0,0,0,0,0],"split_type":[0,0,0,0,0,0,0,0,0,0,0,0,0,0,0],"sum_hessian":[1.393E3,6.69E2,7.24E2,2.35E2,4.34E2,2.56E2,4.68E2,6.2E1,1.73E2,2.25E2,2.09E2,9.9E1,1.57E2,2.15E2,2.53E2],"tree_param":{"num_deleted":"0","num_feature":"15","num_nodes":"15","size_leaf_vector":"1"}},{"base_weights":[-1.08265085E-2,-4.569818E-1,1.4345923E-1,-6.4941514E-1,-2.0947665E-1,-1.1393889E-1,2.939591E-1,-2.9562803E-2,-1.5492212E-2,-1.0739516E-2,6.994663E-3,-9.585082E-3,1.4956947E-3,8.9919596E-4,1.2600663E-2],"categories":[],"categories_nodes":[],"categories_segments":[],"categories_sizes":[],"default_left":[0,0,0,0,0,0,0,0,0,0,0,0,0,0,0],"id":2,"left_children":[1,3,5,7,9,11,13,-1,-1,-1,-1,-1,-1,-1,-1],"loss_changes":[9.5238884E1,1.6095879E1,3.981012E1,7.342598E0,1.05123005E1,1.2896545E1,2.1114899E1,0E0,0E0,0E0,0E0,0E0,0E0,0E0,0E0],"parents":[2147483647,0,0,1,1,2,2,3,3,4,4,5,5,6,6],"right_children":[2,4,6,8,10,12,14,-1,-1,-1,-1,-1,-1,-1,-1],"split_conditions":[3E0,3E0,3E0,3E0,4E0,4E0,3E0,-2.9562803E-2,-1.5492212E-2,-1.0739516E-2,6.994663E-3,-9.585082E-3,1.4956947E-3,8.9919596E-4,1.2600663E-2],"split_indices":[1,6,4,3,2,8,6,0,0,0,0,0,0,0,0],"split_type":[0,0,0,0,0,0,0,0,0,0,0,0,0,0,0],"sum_hessian":[1.379E3,3.56E2,1.023E3,1.98E2,1.58E2,3.75E2,6.48E2,5.4E1,1.44E2,1.2E2,3.8E1,1.69E2,2.06E2,2.12E2,4.36E2],"tree_param":{"num_deleted":"0","num_feature":"15","num_nodes":"15","size_leaf_vector":"1"}},{"base_weights":[2.564434E-3,-2.9128313E-1,2.6957017E-1,-6.0197383E-1,-1.12848945E-1,3.30604E-2,4.0971735E-1,-2.1127878E-2,-6.818336E-3,-7.459939E-3,2.0390572E-3,-9.659282E-3,4.1244477E-3,7.859594E-3,1.6947092E-2],"categories":[],"categories_nodes":[],"categories_segments":[],"categories_sizes":[],"default_left":[0,0,0,0,0,0,0,0,0,0,0,0,0,0,0],"id":3,"left_children":[1,3,5,7,9,11,13,-1,-1,-1,-1,-1,-1,-1,-1],"loss_changes":[1.10528564E2,3.637297E1,2.4085587E1,8.3424225E0,1.06673155E1,1.0122706E1,9.763542E0,0E0,0E0,0E0,0E0,0E0,0E0,0E0,0E0],"parents":[2147483647,0,0,1,1,2,2,3,3,4,4,5,5,6,6],"right_children":[2,4,6,8,10,12,14,-1,-1,-1,-1,-1,-1,-1,-1],"split_conditions":[4E0,3E0,4E0,4E0,4E0,3E0,4E0,-2.1127878E-2,-6.818336E-3,-7.459939E-3,2.0390572E-3,-9.659282E-3,4.1244477E-3,7.859594E-3,1.6947092E-2],"split_indices":[5,1,1,6,2,2,6,0,0,0,0,0,0,0,0],"split_type":[0,0,0,0,0,0,0,0,0,0,0,0,0,0,0],"sum_hessian":[1.409E3,6.69E2,7.4E2,2.42E2,4.27E2,2.78E2,4.62E2,1.88E2,5.4E1,2.47E2,1.8E2,6.1E1,2.17E2,2.4E2,2.22E2],"tree_param":{"num_deleted":"0","num_feature":"15","num_nodes":"15","size_leaf_vector":"1"}},{"base_weights":[-0E0,-2.87582E-1,2.630893E-1,-7.1225446E-1,-1.4599502E-1,1.0049957E-1,4.8529336E-1,-2.5408365E-2,-1.2006806E-2,-9.198874E-3,5.928969E-4,-7.790283E-3,4.7456566E-3,-1.4448785E-3,1.6284794E-2],"categories":[],"categories_nodes":[],"categories_segments":[],"categories_sizes":[],"default_left":[0,0,0,0,0,0,0,0,0,0,0,0,0,0,0],"id":4,"left_children":[1,3,5,7,9,11,13,-1,-1,-1,-1,-1,-1,-1,-1],"loss_changes":[1.05553925E2,3.9246758E1,2.5715336E1,5.6843643E0,1.3653661E1,8.688296E0,9.856102E0,0E0,0E0,0E0,0E0,0E0,0E0,0E0,0E0],"parents":[2147483647,0,0,1,1,2,2,3,3,4,4,5,5,6,6],"right_children":[2,4,6,8,10,12,14,-1,-1,-1,-1,-1,-1,-1,-1],"split_conditions":[4E0,3E0,5E0,4E0,4E0,2E0,2E0,-2.5408365E-2,-1.2006806E-2,-9.198874E-3,5.928969E-4,-7.790283E-3,4.7456566E-3,-1.4448785E-3,1.6284794E-2],"split_indices":[5,0,0,3,3,6,6,0,0,0,0,0,0,0,0],"split_type":[0,0,0,0,0,0,0,0,0,0,0,0,0,0,0],"sum_hessian":[1.395E3,6.67E2,7.28E2,1.65E2,5.02E2,4.23E2,3.05E2,1.13E2,5.2E1,2.58E2,2.44E2,5.6E1,3.67E2,2.8E1,2.77E2],"tree_param":{"num_deleted":"0","num_feature":"15","num_nodes":"15","size_leaf_vector":"1"}},{"base_weights":[-6.6312854E-3,-2.4864018E-1,2.3944584E-1,-5.4127467E-1,-1.2986708E-1,-2.292722E-2,3.6587098E-1,-1.9983435E-2,-8.849598E-3,-7.24053E-3,1.4114628E-3,-1.1718749E-2,1.6548479E-3,6.960277E-3,1.6241997E-2],"categories":[],"categories_nodes":[],"categories_segments":[],"categories_sizes":[],"default_left":[0,0,0,0,0,0,0,0,0,0,0,0,0,0,0],"id":5,"left_children":[1,3,5,7,9,11,13,-1,-1,-1,-1,-1,-1,-1,-1],"loss_changes":[8.505186E1,2.4423138E1,2.3761776E1,5.3710327E0,1.0371821E1,6.8538356E0,1.0480446E1,0E0,0E0,0E0,0E0,0E0,0E0,0E0,0E0],"parents":[2147483647,0,0,1,1,2,2,3,3,4,4,5,5,6,6],"right_children":[2,4,6,8,10,12,14,-1,-1,-1,-1,-1,-1,-1,-1],"split_conditions":[4E0,2E0,3E0,3E0,4E0,2E0,4E0,-1.9983435E-2,-8.849598E-3,-7.24053E-3,1.4114628E-3,-1.1718749E-2,1.6548479E-3,6.960277E-3,1.6241997E-2],"split_indices":[2,4,4,2,1,6,6,0,0,0,0,0,0,0,0],"split_type":[0,0,0,0,0,0,0,0,0,0,0,0,0,0,0],"sum_hessian":[1.428E3,7.22E2,7.06E2,2.06E2,5.16E2,2.27E2,4.79E2,1.34E2,7.2E1,3.2E2,1.96E2,4.2E1,1.85E2,2.75E2,2.04E2],"tree_param":{"num_deleted":"0","num_feature":"15","num_nodes":"15","size_leaf_vector":"1"}},{"base_weights":[8.183277E-4,-2.8770882E-1,2.4199969E-1,-5.4485905E-1,-1.5306942E-1,-5.8667768E-2,3.1880024E-1,-1.901119E-2,-5.548688E-3,-9.618969E-3,-6.966794E-4,-5.3472845E-3,2.8885326E-3,2.3720912E-3,1.1958505E-2],"categories":[],"categories_nodes":[],"categories_segments":[],"categories_sizes":[],"default_left":[0,0,0,0,0,0,0,0,0,0,0,0,0,0,0],"id":6,"left_children":[1,3,5,7,9,11,13,-1,-1,-1,-1,-1,-1,-1,-1],"loss_changes":[9.744758E1,2.132153E1,1.7925495E1,6.087387E0,8.794438E0,2.917163E0,1.1232491E1,0E0,0E0,0E0,0E0,0E0,0E0,0E0,0E0],"parents":[2147483647,0,0,1,1,2,2,3,3,4,4,5,5,6,6],"right_children":[2,4,6,8,10,12,14,-1,-1,-1,-1,-1,-1,-1,-1],"split_conditions":[4E0,3E0,4E0,4E0,3E0,5E0,2E0,-1.901119E-2,-5.548688E-3,-9.618969E-3,-6.966794E-4,-5.3472845E-3,2.8885326E-3,2.3720912E-3,1.1958505E-2],"split_indices":[0,0,7,9,10,0,13,0,0,0,0,0,0,0,0],"split_type":[0,0,0,0,0,0,0,0,0,0,0,0,0,0,0],"sum_hessian":[1.401E3,6.36E2,7.65E2,2.16E2,4.2E2,1.53E2,6.12E2,1.71E2,4.5E1,1.8E2,2.4E2,9E1,6.3E1,1.56E2,4.56E2],"tree_param":{"num_deleted":"0","num_feature":"15","num_nodes":"15","size_leaf_vector":"1"}},{"base_weights":[4.5639914E-3,-2.699665E-1,2.4139848E-1,-5.3379893E-1,-1.3328339E-1,6.1101865E-2,4.1811776E-1,-2.564626E-2,-1.2776031E-2,-9.065726E-3,-8.154616E-5,-6.2761297E-3,4.887229E-3,5.009337E-3,1.5375944E-2],"categories":[],"categories_nodes":[],"categories_segments":[],"categories_sizes":[],"default_left":[0,0,0,0,0,0,0,0,0,0,0,0,0,0,0],"id":7,"left_children":[1,3,5,7,9,11,13,-1,-1,-1,-1,-1,-1,-1,-1],"loss_changes":[9.1778564E1,2.2844627E1,2.373587E1,6.339878E0,9.222387E0,1.0383917E1,8.353775E0,0E0,0E0,0E0,0E0,0E0,0E0,0E0,0E0],"parents":[2147483647,0,0,1,1,2,2,3,3,4,4,5,5,6,6],"right_children":[2,4,6,8,10,12,14,-1,-1,-1,-1,-1,-1,-1,-1],"split_conditions":[4E0,3E0,5E0,3E0,3E0,4E0,3E0,-2.564626E-2,-1.2776031E-2,-9.065726E-3,-8.154616E-5,-6.2761297E-3,4.887229E-3,5.009337E-3,1.5375944E-2],"split_indices":[0,0,0,3,10,7,6,0,0,0,0,0,0,0,0],"split_type":[0,0,0,0,0,0,0,0,0,0,0,0,0,0,0],"sum_hessian":[1.412E3,6.52E2,7.6E2,2.2E2,4.32E2,3.79E2,3.81E2,5.3E1,1.67E2,1.85E2,2.47E2,1.01E2,2.78E2,1.07E2,2.74E2],"tree_param":{"num_deleted":"0","num_feature":"15","num_nodes":"15","size_leaf_vector":"1"}},{"base_weights":[-3.3112108E-3,-2.7053815E-1,2.229502E-1,-4.0768093E-1,-0E0,4.410207E-2,4.015104E-1,-1.9676102E-2,-9.083798E-3,-3.008331E-3,7.532104E-3,-3.7929171E-3,4.6074116E-3,1.2373974E-3,1.40492935E-2],"categories":[],"categories_nodes":[],"categories_segments":[],"categories_sizes":[],"default_left":[0,0,0,0,0,0,0,0,0,0,0,0,0,0,0],"id":8,"left_children":[1,3,5,7,9,11,13,-1,-1,-1,-1,-1,-1,-1,-1],"loss_changes":[8.457627E1,2.390818E1,2.366557E1,1.0155266E1,5.4575415E0,7.1219883E0,8.515018E0,0E0,0E0,0E0,0E0,0E0,0E0,0E0,0E0],"parents":[2147483647,0,0,1,1,2,2,3,3,4,4,5,5,6,6],"right_children":[2,4,6,8,10,12,14,-1,-1,-1,-1,-1,-1,-1,-1],"split_conditions":[4E0,4E0,5E0,2E0,5E0,3E0,3E0,-1.9676102E-2,-9.083798E-3,-3.008331E-3,7.532104E-3,-3.7929171E-3,4.6074116E-3,1.2373974E-3,1.40492935E-2],"split_indices":[0,5,0,6,8,9,12,0,0,0,0,0,0,0,0],"split_type":[0,0,0,0,0,0,0,0,0,0,0,0,0,0,0],"sum_hessian":[1.398E3,6.43E2,7.55E2,4.27E2,2.16E2,3.8E2,3.75E2,1.24E2,3.03E2,1.54E2,6.2E1,1.45E2,2.35E2,6.1E1,3.14E2],"tree_param":{"num_deleted":"0","num_feature":"15","num_nodes":"15","size_leaf_vector":"1"}},{"base_weights":[-0E0,-2.5943825E-1,2.4412169E-1,-4.118564E-1,-1.40615115E-2,2.0479009E-2,3.6513132E-1,-2.0799972E-2,-9.901752E-3,-2.7323493E-3,6.940273E-3,6.010284E-3,-2.2982901E-3,6.5781293E-3,1.496424E-2],"categories":[],"categories_nodes":[],"categories_segments":[],"categories_sizes":[],"default_left":[0,0,0,0,0,0,0,0,0,0,0,0,0,0,0],"id":9,"left_children":[1,3,5,7,9,11,13,-1,-1,-1,-1,-1,-1,-1,-1],"loss_changes":[8.802187E1,2.4707119E1,1.9045761E1,8.46051E0,4.7741947E0,4.5770597E0,8.308659E0,0E0,0E0,0E0,0E0,0E0,0E0,0E0,0E0],"parents":[2147483647,0,0,1,1,2,2,3,3,4,4,5,5,6,6],"right_children":[2,4,6,8,10,12,14,-1,-1,-1,-1,-1,-1,-1,-1],"split_conditions":[4E0,4E0,4E0,2E0,4E0,1E0,5E0,-2.0799972E-2,-9.901752E-3,-2.7323493E-3,6.940273E-3,6.010284E-3,-2.2982901E-3,6.5781293E-3,1.496424E-2],"split_indices":[5,1,1,1,13,14,5,0,0,0,0,0,0,0,0],"split_type":[0,0,0,0,0,0,0,0,0,0,0,0,0,0,0],"sum_hessian":[1.39E3,6.72E2,7.18E2,4.12E2,2.6E2,2.55E2,4.63E2,9E1,3.22E2,2.01E2,5.9E1,9.3E1,1.62E2,2.25E2,2.38E2],"tree_param":{"num_deleted":"0","num_feature":"15","num_nodes":"15","size_leaf_vector":"1"}},{"base_weights":[-0E0,-2.6366174E-1,2.1954349E-1,-4.930603E-1,-1.3632001E-1,-3.79707E-2,3.2915875E-1,-1.8812668E-2,-8.933746E-3,-9.053325E-3,-1.6061401E-4,-6.7502037E-3,1.6149429E-3,5.4786634E-3,1.3240517E-2],"categories":[],"categories_nodes":[],"categories_segments":[],"categories_sizes":[],"default_left":[0,0,0,0,0,0,0,0,0,0,0,0,0,0,0],"id":10,"left_children":[1,3,5,7,9,11,13,-1,-1,-1,-1,-1,-1,-1,-1],"loss_changes":[8.002736E1,1.7686172E1,2.1631577E1,4.857441E0,8.490824E0,4.0004478E0,8.138023E0,0E0,0E0,0E0,0E0,0E0,0E0,0E0,0E0],"parents":[2147483647,0,0,1,1,2,2,3,3,4,4,5,5,6,6],"right_children":[2,4,6,8,10,12,14,-1,-1,-1,-1,-1,-1,-1,-1],"split_conditions":[4E0,3E0,4E0,4E0,3E0,3E0,5E0,-1.8812668E-2,-8.933746E-3,-9.053325E-3,-1.6061401E-4,-6.7502037E-3,1.6149429E-3,5.4786634E-3,1.3240517E-2],"split_indices":[0,0,3,3,10,9,0,0,0,0,0,0,0,0,0],"split_type":[0,0,0,0,0,0,0,0,0,0,0,0,0,0,0],"sum_hessian":[1.383E3,6.27E2,7.56E2,2.21E2,4.06E2,2.23E2,5.33E2,1.28E2,9.3E1,1.76E2,2.3E2,7.7E1,1.46E2,2.35E2,2.98E2],"tree_param":{"num_deleted":"0","num_feature":"15","num_nodes":"15","size_leaf_vector":"1"}},{"base_weights":[-4.9213716E-3,-2.6078567E-1,2.0637412E-1,-5.4378504E-1,-1.1214497E-1,5.2661267E-3,3.3451897E-1,-2.8633894E-2,-1.4241061E-2,-7.602467E-3,1.1491122E-3,-9.123875E-3,3.441375E-3,2.8477E-3,1.2519049E-2],"categories":[],"categories_nodes":[],"categories_segments":[],"categories_sizes":[],"default_left":[0,0,0,0,0,0,0,0,0,0,0,0,0,0,0],"id":11,"left_children":[1,3,5,7,9,11,13,-1,-1,-1,-1,-1,-1,-1,-1],"loss_changes":[7.558147E1,2.6013237E1,1.9323689E1,4.6946907E0,9.0995865E0,9.969928E0,8.670895E0,0E0,0E0,0E0,0E0,0E0,0E0,0E0,0E0],"parents":[2147483647,0,0,1,1,2,2,3,3,4,4,5,5,6,6],"right_children":[2,4,6,8,10,12,14,-1,-1,-1,-1,-1,-1,-1,-1],"split_conditions":[4E0,3E0,4E0,2E0,4E0,3E0,3E0,-2.8633894E-2,-1.4241061E-2,-7.602467E-3,1.1491122E-3,-9.123875E-3,3.441375E-3,2.8477E-3,1.2519049E-2],"split_indices":[0,2,1,0,1,2,10,0,0,0,0,0,0,0,0],"split_type":[0,0,0,0,0,0,0,0,0,0,0,0,0,0,0],"sum_hessian":[1.397E3,6.34E2,7.63E2,2.16E2,4.18E2,3E2,4.63E2,2.9E1,1.87E2,2.19E2,1.99E2,7.6E1,2.24E2,1.22E2,3.41E2],"tree_param":{"num_deleted":"0","num_feature":"15","num_nodes":"15","size_leaf_vector":"1"}},{"base_weights":[1.4446891E-3,-2.4758554E-1,2.0080268E-1,-5.105347E-1,-1.07809834E-1,-0E0,3.259619E-1,-2.6794694E-2,-1.1679933E-2,-6.501938E-3,-0E0,-6.8524578E-3,2.5963485E-3,4.5434604E-3,1.3507024E-2],"categories":[],"categories_nodes":[],"categories_segments":[],"categories_sizes":[],"default_left":[0,0,0,0,0,0,0,0,0,0,0,0,0,0,0],"id":12,"left_children":[1,3,5,7,9,11,13,-1,-1,-1,-1,-1,-1,-1,-1],"loss_changes":[6.921061E1,2.2095387E1,1.9671232E1,8.546024E0,4.9577556E0,5.9338655E0,9.807686E0,0E0,0E0,0E0,0E0,0E0,0E0,0E0,0E0],"parents":[2147483647,0,0,1,1,2,2,3,3,4,4,5,5,6,6],"right_children":[2,4,6,8,10,12,14,-1,-1,-1,-1,-1,-1,-1,-1],"split_conditions":[4E0,3E0,4E0,3E0,4E0,2E0,5E0,-2.6794694E-2,-1.1679933E-2,-6.501938E-3,-0E0,-6.8524578E-3,2.5963485E-3,4.5434604E-3,1.3507024E-2],"split_indices":[0,1,1,3,3,13,0,0,0,0,0,0,0,0,0],"split_type":[0,0,0,0,0,0,0,0,0,0,0,0,0,0,0],"sum_hessian":[1.395E3,6.18E2,7.77E2,2.12E2,4.06E2,2.97E2,4.8E2,4.9E1,1.63E2,2.06E2,2E2,8.3E1,2.14E2,2.03E2,2.77E2],"tree_param":{"num_deleted":"0","num_feature":"15","num_nodes":"15","size_leaf_vector":"1"}},{"base_weights":[6.673231E-3,-1.2443097E-1,3.5922408E-1,-4.3919733E-1,-1.3916376E-2,1.4329606E-1,4.6079183E-1,-2.1917399E-2,-9.989145E-3,-5.064785E-3,3.2250609E-3,-4.0185004E-3,7.8275995E-3,-6.1762314E-3,1.46673415E-2],"categories":[],"categories_nodes":[],"categories_segments":[],"categories_sizes":[],"default_left":[0,0,0,0,0,0,0,0,0,0,0,0,0,0,0],"id":13,"left_children":[1,3,5,7,9,11,13,-1,-1,-1,-1,-1,-1,-1,-1],"loss_changes":[6.536095E1,3.5203106E1,7.8171005E0,7.105747E0,1.4375266E1,4.236603E0,5.120796E0,0E0,0E0,0E0,0E0,0E0,0E0,0E0,0E0],"parents":[2147483647,0,0,1,1,2,2,3,3,4,4,5,5,6,6],"right_children":[2,4,6,8,10,12,14,-1,-1,-1,-1,-1,-1,-1,-1],"split_conditions":[5E0,3E0,4E0,3E0,3E0,3E0,2E0,-2.1917399E-2,-9.989145E-3,-5.064785E-3,3.2250609E-3,-4.0185004E-3,7.8275995E-3,-6.1762314E-3,1.46673415E-2],"split_indices":[0,2,12,3,6,6,2,0,0,0,0,0,0,0,0],"split_type":[0,0,0,0,0,0,0,0,0,0,0,0,0,0,0],"sum_hessian":[1.409E3,1.025E3,3.84E2,2.64E2,7.61E2,1.26E2,2.58E2,6.8E1,1.96E2,3.38E2,4.23E2,3.5E1,9.1E1,9E0,2.49E2],"tree_param":{"num_deleted":"0","num_feature":"15","num_nodes":"15","size_leaf_vector":"1"}},{"base_weights":[2.9536523E-3,-2.2111224E-1,1.9202642E-1,-4.7507298E-1,-7.964143E-2,-1.0210933E-1,2.6978E-1,-1.8593164E-2,-8.817913E-3,-6.9418526E-3,1.5038038E-3,-5.7952004E-3,8.0811407E-4,-1.9283276E-3,9.841254E-3],"categories":[],"categories_nodes":[],"categories_segments":[],"categories_sizes":[],"default_left":[0,0,0,0,0,0,0,0,0,0,0,0,0,0,0],"id":14,"left_children":[1,3,5,7,9,11,13,-1,-1,-1,-1,-1,-1,-1,-1],"loss_changes":[5.9070602E1,2.2295498E1,1.752659E1,4.98225E0,8.275324E0,1.9996381E0,1.2000229E1,0E0,0E0,0E0,0E0,0E0,0E0,0E0,0E0],"parents":[2147483647,0,0,1,1,2,2,3,3,4,4,5,5,6,6],"right_children":[2,4,6,8,10,12,14,-1,-1,-1,-1,-1,-1,-1,-1],"split_conditions":[4E0,3E0,4E0,3E0,4E0,5E0,3E0,-1.8593164E-2,-8.817913E-3,-6.9418526E-3,1.5038038E-3,-5.7952004E-3,8.0811407E-4,-1.9283276E-3,9.841254E-3],"split_indices":[0,1,7,10,8,0,1,0,0,0,0,0,0,0,0],"split_type":[0,0,0,0,0,0,0,0,0,0,0,0,0,0,0],"sum_hessian":[1.395E3,6.36E2,7.59E2,2.25E2,4.11E2,1.56E2,6.03E2,1.22E2,1.03E2,1.93E2,2.18E2,9.6E1,6E1,8.7E1,5.16E2],"tree_param":{"num_deleted":"0","num_feature":"15","num_nodes":"15","size_leaf_vector":"1"}},{"base_weights":[-5.145263E-3,-3.9006704E-1,1.095519E-1,-6.330532E-1,-2.5039566E-1,-0E0,3.4822425E-1,-2.017863E-2,-8.992102E-3,-9.604104E-3,-0E0,-4.629222E-3,3.448594E-3,-4.945768E-4,1.175191E-2],"categories":[],"categories_nodes":[],"categories_segments":[],"categories_sizes":[],"default_left":[0,0,0,0,0,0,0,0,0,0,0,0,0,0,0],"id":15,"left_children":[1,3,5,7,9,11,13,-1,-1,-1,-1,-1,-1,-1,-1],"loss_changes":[6.239964E1,1.0145226E1,2.8486307E1,5.5563736E-1,3.6019964E0,1.31486E1,5.802017E0,0E0,0E0,0E0,0E0,0E0,0E0,0E0,0E0],"parents":[2147483647,0,0,1,1,2,2,3,3,4,4,5,5,6,6],"right_children":[2,4,6,8,10,12,14,-1,-1,-1,-1,-1,-1,-1,-1],"split_conditions":[3E0,3E0,5E0,3E0,4E0,3E0,2E0,-2.017863E-2,-8.992102E-3,-9.604104E-3,-0E0,-4.629222E-3,3.448594E-3,-4.945768E-4,1.175191E-2],"split_indices":[2,0,0,4,9,6,6,0,0,0,0,0,0,0,0],"split_type":[0,0,0,0,0,0,0,0,0,0,0,0,0,0,0],"sum_hessian":[1.407E3,3.25E2,1.082E3,1.16E2,2.09E2,7.4E2,3.42E2,1.01E2,1.5E1,1.63E2,4.6E1,3.18E2,4.22E2,3.4E1,3.08E2],"tree_param":{"num_deleted":"0","num_feature":"15","num_nodes":"15","size_leaf_vector":"1"}},{"base_weights":[-2.0353405E-2,-2.3013386E-1,1.7857942E-1,-5.9662664E-1,-1.4481162E-1,5.352538E-2,3.4175903E-1,-2.3556741E-2,-1.1761898E-2,-7.474317E-3,1.9750395E-3,-7.787968E-3,3.1322502E-3,3.1032546E-3,1.3343923E-2],"categories":[],"categories_nodes":[],"categories_segments":[],"categories_sizes":[],"default_left":[0,0,0,0,0,0,0,0,0,0,0,0,0,0,0],"id":16,"left_children":[1,3,5,7,9,11,13,-1,-1,-1,-1,-1,-1,-1,-1],"loss_changes":[5.8060165E1,2.0490326E1,1.4113588E1,3.681137E0,1.2337088E1,6.313912E0,6.941082E0,0E0,0E0,0E0,0E0,0E0,0E0,0E0,0E0],"parents":[2147483647,0,0,1,1,2,2,3,3,4,4,5,5,6,6],"right_children":[2,4,6,8,10,12,14,-1,-1,-1,-1,-1,-1,-1,-1],"split_conditions":[4E0,2E0,4E0,3E0,4E0,2E0,3E0,-2.3556741E-2,-1.1761898E-2,-7.474317E-3,1.9750395E-3,-7.787968E-3,3.1322502E-3,3.1032546E-3,1.3343923E-2],"split_indices":[1,10,4,2,2,6,6,0,0,0,0,0,0,0,0],"split_type":[0,0,0,0,0,0,0,0,0,0,0,0,0,0,0],"sum_hessian":[1.39E3,6.79E2,7.11E2,1.26E2,5.53E2,4.06E2,3.05E2,6.3E1,6.3E1,3.73E2,1.8E2,5.4E1,3.52E2,9.5E1,2.1E2],"tree_param":{"num_deleted":"0","num_feature":"15","num_nodes":"15","size_leaf_vector":"1"}},{"base_weights":[-8.469379E-3,-2.1593814E-1,1.677494E-1,-3.6451384E-1,-6.749614E-3,-3.0849343E-2,2.5602785E-1,-1.5206018E-2,-5.3355265E-3,-4.6415012E-3,5.5697546E-3,-7.103354E-3,2.0461038E-3,2.0878802E-3,9.918448E-3],"categories":[],"categories_nodes":[],"categories_segments":[],"categories_sizes":[],"default_left":[0,0,0,0,0,0,0,0,0,0,0,0,0,0,0],"id":17,"left_children":[1,3,5,7,9,11,13,-1,-1,-1,-1,-1,-1,-1,-1],"loss_changes":[5.086717E1,1.9551517E1,1.335689E1,9.199474E0,7.628079E0,4.7992544E0,6.8583183E0,0E0,0E0,0E0,0E0,0E0,0E0,0E0,0E0],"parents":[2147483647,0,0,1,1,2,2,3,3,4,4,5,5,6,6],"right_children":[2,4,6,8,10,12,14,-1,-1,-1,-1,-1,-1,-1,-1],"split_conditions":[4E0,3E0,4E0,3E0,4E0,3E0,4E0,-1.5206018E-2,-5.3355265E-3,-4.6415012E-3,5.5697546E-3,-7.103354E-3,2.0461038E-3,2.0878802E-3,9.918448E-3],"split_indices":[0,4,3,6,2,6,2,0,0,0,0,0,0,0,0],"split_type":[0,0,0,0,0,0,0,0,0,0,0,0,0,0,0],"sum_hessian":[1.39E3,6.41E2,7.49E2,3.72E2,2.69E2,2.27E2,5.22E2,2.08E2,1.64E2,1.55E2,1.14E2,7.7E1,1.5E2,1.53E2,3.69E2],"tree_param":{"num_deleted":"0","num_feature":"15","num_nodes":"15","size_leaf_vector":"1"}},{"base_weights":[1.1012591E-3,-2.158845E-1,2.0274553E-1,-4.4004685E-1,-1.1785381E-1,-3.9839563E-3,2.8858858E-1,-1.5542203E-2,-3.6835144E-3,-7.449312E-3,3.015173E-4,-2.482217E-3,6.842737E-3,2.9706438E-3,1.116678E-2],"categories":[],"categories_nodes":[],"categories_segments":[],"categories_sizes":[],"default_left":[0,0,0,0,0,0,0,0,0,0,0,0,0,0,0],"id":18,"left_children":[1,3,5,7,9,11,13,-1,-1,-1,-1,-1,-1,-1,-1],"loss_changes":[6.2337093E1,1.4472561E1,1.3434793E1,4.4335213E0,8.231031E0,3.7663965E0,7.884079E0,0E0,0E0,0E0,0E0,0E0,0E0,0E0,0E0],"parents":[2147483647,0,0,1,1,2,2,3,3,4,4,5,5,6,6],"right_children":[2,4,6,8,10,12,14,-1,-1,-1,-1,-1,-1,-1,-1],"split_conditions":[4E0,2E0,3E0,4E0,4E0,5E0,4E0,-1.5542203E-2,-3.6835144E-3,-7.449312E-3,3.015173E-4,-2.482217E-3,6.842737E-3,2.9706438E-3,1.116678E-2],"split_indices":[5,4,6,1,3,1,3,0,0,0,0,0,0,0,0],"split_type":[0,0,0,0,0,0,0,0,0,0,0,0,0,0,0],"sum_hessian":[1.425E3,6.84E2,7.41E2,2.05E2,4.79E2,2.14E2,5.27E2,1.62E2,4.3E1,2.41E2,2.38E2,1.63E2,5.1E1,1.65E2,3.62E2],"tree_param":{"num_deleted":"0","num_feature":"15","num_nodes":"15","size_leaf_vector":"1"}},{"base_weights":[6.4499024E-3,-1.1188518E-1,3.1353068E-1,-4.135283E-1,-2.801396E-2,1.3560771E-2,3.542224E-1,-1.5327237E-2,-5.0665843E-3,-4.940188E-3,2.813839E-3,-4.627013E-3,4.460004E-3,7.942335E-3,1.5989892E-2],"categories":[],"categories_nodes":[],"categories_segments":[],"categories_sizes":[],"default_left":[0,0,0,0,0,0,0,0,0,0,0,0,0,0,0],"id":19,"left_children":[1,3,5,7,9,11,13,-1,-1,-1,-1,-1,-1,-1,-1],"loss_changes":[5.1366867E1,2.521196E1,4.4415703E0,4.513027E0,1.3321605E1,1.1283919E0,4.703743E0,0E0,0E0,0E0,0E0,0E0,0E0,0E0,0E0],"parents":[2147483647,0,0,1,1,2,2,3,3,4,4,5,5,6,6],"right_children":[2,4,6,8,10,12,14,-1,-1,-1,-1,-1,-1,-1,-1],"split_conditions":[5E0,3E0,2E0,4E0,4E0,3E0,5E0,-1.5327237E-2,-5.0665843E-3,-4.940188E-3,2.813839E-3,-4.627013E-3,4.460004E-3,7.942335E-3,1.5989892E-2],"split_indices":[0,0,6,1,3,1,1,0,0,0,0,0,0,0,0],"split_type":[0,0,0,0,0,0,0,0,0,0,0,0,0,0,0],"sum_hessian":[1.408E3,1.014E3,3.94E2,2.18E2,7.96E2,5E1,3.44E2,1.53E2,6.5E1,3.79E2,4.17E2,1.9E1,3.1E1,2.33E2,1.11E2],"tree_param":{"num_deleted":"0","num_feature":"15","num_nodes":"15","size_leaf_vector":"1"}},{"base_weights":[6.8995873E-3,-1.9755879E-1,1.9246787E-1,-3.2815644E-1,5.2691014E-3,7.423827E-2,3.5268855E-1,-1.872065E-2,-7.81818E-3,-3.992204E-3,5.207893E-3,-0E0,6.21241E-3,1.0231216E-3,1.1986375E-2],"categories":[],"categories_nodes":[],"categories_segments":[],"categories_sizes":[],"default_left":[0,0,0,0,0,0,0,0,0,0,0,0,0,0,0],"id":20,"left_children":[1,3,5,7,9,11,13,-1,-1,-1,-1,-1,-1,-1,-1],"loss_changes":[5.3947754E1,1.8176655E1,1.3742237E1,7.368084E0,6.118852E0,4.3409758E0,4.2537575E0,0E0,0E0,0E0,0E0,0E0,0E0,0E0,0E0],"parents":[2147483647,0,0,1,1,2,2,3,3,4,4,5,5,6,6],"right_children":[2,4,6,8,10,12,14,-1,-1,-1,-1,-1,-1,-1,-1],"split_conditions":[4E0,4E0,5E0,3E0,4E0,5E0,3E0,-1.872065E-2,-7.81818E-3,-3.992204E-3,5.207893E-3,-0E0,6.21241E-3,1.0231216E-3,1.1986375E-2],"split_indices":[5,0,0,3,1,5,12,0,0,0,0,0,0,0,0],"split_type":[0,0,0,0,0,0,0,0,0,0,0,0,0,0,0],"sum_hessian":[1.422E3,6.74E2,7.48E2,4.13E2,2.61E2,4.34E2,3.14E2,7.4E1,3.39E2,1.4E2,1.21E2,2.77E2,1.57E2,4.3E1,2.71E2],"tree_param":{"num_deleted":"0","num_feature":"15","num_nodes":"15","size_leaf_vector":"1"}},{"base_weights":[-5.497455E-3,-1.8225822E-1,1.7439796E-1,-4.582706E-1,-9.5493026E-2,-6.856443E-3,2.7321437E-1,-1.5278174E-2,-9.2448265E-4,-4.8159827E-3,3.6013692E-3,-6.9966037E-3,2.9017965E-3,5.387343E-3,1.5348946E-2],"categories":[],"categories_nodes":[],"categories_segments":[],"categories_sizes":[],"default_left":[0,0,0,0,0,0,0,0,0,0,0,0,0,0,0],"id":21,"left_children":[1,3,5,7,9,11,13,-1,-1,-1,-1,-1,-1,-1,-1],"loss_changes":[4.484431E1,1.6545103E1,1.2732544E1,3.122532E0,7.6949625E0,5.811232E0,9.443417E0,0E0,0E0,0E0,0E0,0E0,0E0,0E0,0E0],"parents":[2147483647,0,0,1,1,2,2,3,3,4,4,5,5,6,6],"right_children":[2,4,6,8,10,12,14,-1,-1,-1,-1,-1,-1,-1,-1],"split_conditions":[4E0,3E0,3E0,5E0,5E0,4E0,5E0,-1.5278174E-2,-9.2448265E-4,-4.8159827E-3,3.6013692E-3,-6.9966037E-3,2.9017965E-3,5.387343E-3,1.5348946E-2],"split_indices":[2,0,6,3,0,3,3,0,0,0,0,0,0,0,0],"split_type":[0,0,0,0,0,0,0,0,0,0,0,0,0,0,0],"sum_hessian":[1.41E3,7.14E2,6.96E2,1.68E2,5.46E2,2.42E2,4.54E2,1.48E2,2E1,4.23E2,1.23E2,7.9E1,1.63E2,3.29E2,1.25E2],"tree_param":{"num_deleted":"0","num_feature":"15","num_nodes":"15","size_leaf_vector":"1"}},{"base_weights":[-4.8325298E-4,-2.0201662E-1,1.6614935E-1,-3.4915584E-1,-0E0,-8.659728E-2,2.2564982E-1,-1.5896427E-2,-6.2977457E-3,-3.430765E-3,4.5893267E-3,-1.2097957E-2,-0E0,2.9832055E-3,9.984527E-3],"categories":[],"categories_nodes":[],"categories_segments":[],"categories_sizes":[],"default_left":[0,0,0,0,0,0,0,0,0,0,0,0,0,0,0],"id":22,"left_children":[1,3,5,7,9,11,13,-1,-1,-1,-1,-1,-1,-1,-1],"loss_changes":[4.695063E1,1.8948812E1,1.159877E1,8.519142E0,4.679457E0,4.140612E0,7.953417E0,0E0,0E0,0E0,0E0,0E0,0E0,0E0,0E0],"parents":[2147483647,0,0,1,1,2,2,3,3,4,4,5,5,6,6],"right_children":[2,4,6,8,10,12,14,-1,-1,-1,-1,-1,-1,-1,-1],"split_conditions":[4E0,3E0,3E0,3E0,4E0,2E0,5E0,-1.5896427E-2,-6.2977457E-3,-3.430765E-3,4.5893267E-3,-1.2097957E-2,-0E0,2.9832055E-3,9.984527E-3],"split_indices":[0,4,1,0,2,9,0,0,0,0,0,0,0,0,0],"split_type":[0,0,0,0,0,0,0,0,0,0,0,0,0,0,0],"sum_hessian":[1.397E3,6.35E2,7.62E2,3.68E2,2.67E2,1.42E2,6.2E2,1.57E2,2.11E2,1.52E2,1.15E2,3.2E1,1.1E2,2.89E2,3.31E2],"tree_param":{"num_deleted":"0","num_feature":"15","num_nodes":"15","size_leaf_vector":"1"}},{"base_weights":[3.9527523E-3,-1.9247238E-1,1.8480441E-1,-3.7628704E-1,-8.9043014E-2,-1.2980086E-2,2.6829973E-1,-1.5495409E-2,-6.6484027E-3,-6.2454776E-3,4.018197E-4,-5.156089E-3,2.122153E-3,4.493958E-3,1.2224466E-2],"categories":[],"categories_nodes":[],"categories_segments":[],"categories_sizes":[],"default_left":[0,0,0,0,0,0,0,0,0,0,0,0,0,0,0],"id":23,"left_children":[1,3,5,7,9,11,13,-1,-1,-1,-1,-1,-1,-1,-1],"loss_changes":[5.0507904E1,1.2443562E1,1.2525482E1,4.4880753E0,5.5404224E0,2.987919E0,8.117737E0,0E0,0E0,0E0,0E0,0E0,0E0,0E0,0E0],"parents":[2147483647,0,0,1,1,2,2,3,3,4,4,5,5,6,6],"right_children":[2,4,6,8,10,12,14,-1,-1,-1,-1,-1,-1,-1,-1],"split_conditions":[4E0,3E0,3E0,3E0,3E0,4E0,5E0,-1.5495409E-2,-6.6484027E-3,-6.2454776E-3,4.018197E-4,-5.156089E-3,2.122153E-3,4.493958E-3,1.2224466E-2],"split_indices":[5,2,6,10,10,8,7,0,0,0,0,0,0,0,0],"split_type":[0,0,0,0,0,0,0,0,0,0,0,0,0,0,0],"sum_hessian":[1.422E3,6.79E2,7.43E2,2.41E2,4.38E2,2.17E2,5.26E2,1.23E2,1.18E2,2.07E2,2.31E2,7.9E1,1.38E2,2.88E2,2.38E2],"tree_param":{"num_deleted":"0","num_feature":"15","num_nodes":"15","size_leaf_vector":"1"}},{"base_weights":[-9.292132E-3,-1.8429951E-1,1.4306577E-1,-4.2572588E-1,-1.0358761E-1,3.7539784E-2,3.1165147E-1,-1.8704634E-2,-5.9203464E-3,-8.090628E-3,-6.0826633E-4,-2.0900015E-3,3.7031095E-3,2.1376787E-3,1.15810195E-2],"categories":[],"categories_nodes":[],"categories_segments":[],"categories_sizes":[],"default_left":[0,0,0,0,0,0,0,0,0,0,0,0,0,0,0],"id":24,"left_children":[1,3,5,7,9,11,13,-1,-1,-1,-1,-1,-1,-1,-1],"loss_changes":[3.7850967E1,1.2389648E1,1.3082448E1,6.5402966E0,6.629189E0,4.3636374E0,4.674528E0,0E0,0E0,0E0,0E0,0E0,0E0,0E0,0E0],"parents":[2147483647,0,0,1,1,2,2,3,3,4,4,5,5,6,6],"right_children":[2,4,6,8,10,12,14,-1,-1,-1,-1,-1,-1,-1,-1],"split_conditions":[3E0,3E0,5E0,3E0,4E0,4E0,2E0,-1.8704634E-2,-5.9203464E-3,-8.090628E-3,-6.0826633E-4,-2.0900015E-3,3.7031095E-3,2.1376787E-3,1.15810195E-2],"split_indices":[4,0,0,10,11,1,13,0,0,0,0,0,0,0,0],"split_type":[0,0,0,0,0,0,0,0,0,0,0,0,0,0,0],"sum_hessian":[1.418E3,6.63E2,7.55E2,1.63E2,5E2,4.68E2,2.87E2,8.5E1,7.8E1,1.63E2,3.37E2,2.03E2,2.65E2,7.1E1,2.16E2],"tree_param":{"num_deleted":"0","num_feature":"15","num_nodes":"15","size_leaf_vector":"1"}},{"base_weights":[-1.00091295E-2,-1.9132425E-1,1.6642563E-1,-4.6286073E-1,-9.669825E-2,6.477998E-2,3.062785E-1,-2.617126E-2,-1.2427897E-2,-7.933804E-3,-5.4347585E-4,-8.960171E-3,3.0017642E-3,5.567618E-3,1.1838384E-2],"categories":[],"categories_nodes":[],"categories_segments":[],"categories_sizes":[],"default_left":[0,0,0,0,0,0,0,0,0,0,0,0,0,0,0],"id":25,"left_children":[1,3,5,7,9,11,13,-1,-1,-1,-1,-1,-1,-1,-1],"loss_changes":[4.5963593E1,1.7708979E1,9.935078E0,2.3120995E0,6.7045674E0,5.238415E0,2.628189E0,0E0,0E0,0E0,0E0,0E0,0E0,0E0,0E0],"parents":[2147483647,0,0,1,1,2,2,3,3,4,4,5,5,6,6],"right_children":[2,4,6,8,10,12,14,-1,-1,-1,-1,-1,-1,-1,-1],"split_conditions":[4E0,3E0,5E0,2E0,3E0,2E0,5E0,-2.617126E-2,-1.2427897E-2,-7.933804E-3,-5.4347585E-4,-8.960171E-3,3.0017642E-3,5.567618E-3,1.1838384E-2],"split_indices":[5,0,0,11,1,1,7,0,0,0,0,0,0,0,0],"split_type":[0,0,0,0,0,0,0,0,0,0,0,0,0,0,0],"sum_hessian":[1.436E3,7.11E2,7.25E2,1.81E2,5.3E2,4.24E2,3.01E2,1.7E1,1.64E2,1.65E2,3.65E2,3.5E1,3.89E2,1.32E2,1.69E2],"tree_param":{"num_deleted":"0","num_feature":"15","num_nodes":"15","size_leaf_vector":"1"}},{"base_weights":[7.3532253E-3,-1.7894098E-1,1.7713097E-1,-4.5080373E-1,-8.903434E-2,5.812396E-2,3.0036774E-1,-1.6219106E-2,-7.626565E-3,-6.1017824E-3,9.509042E-4,-9.861718E-3,2.9890884E-3,-0E0,1.0333111E-2],"categories":[],"categories_nodes":[],"categories_segments":[],"categories_sizes":[],"default_left":[0,0,0,0,0,0,0,0,0,0,0,0,0,0,0],"id":26,"left_children":[1,3,5,7,9,11,13,-1,-1,-1,-1,-1,-1,-1,-1],"loss_changes":[4.3899334E1,1.5567459E1,1.0333023E1,2.0471764E0,7.047596E0,5.7935085E0,4.365011E0,0E0,0E0,0E0,0E0,0E0,0E0,0E0,0E0],"parents":[2147483647,0,0,1,1,2,2,3,3,4,4,5,5,6,6],"right_children":[2,4,6,8,10,12,14,-1,-1,-1,-1,-1,-1,-1,-1],"split_conditions":[4E0,3E0,5E0,4E0,4E0,3E0,3E0,-1.6219106E-2,-7.626565E-3,-6.1017824E-3,9.509042E-4,-9.861718E-3,2.9890884E-3,-0E0,1.0333111E-2],"split_indices":[5,0,5,3,3,0,12,0,0,0,0,0,0,0,0],"split_type":[0,0,0,0,0,0,0,0,0,0,0,0,0,0,0],"sum_hessian":[1.388E3,6.59E2,7.29E2,1.61E2,4.98E2,3.75E2,3.54E2,1.07E2,5.4E1,2.6E2,2.38E2,3.4E1,3.41E2,4.8E1,3.06E2],"tree_param":{"num_deleted":"0","num_feature":"15","num_nodes":"15","size_leaf_vector":"1"}},{"base_weights":[-3.725916E-3,-1.8660375E-1,1.6719027E-1,-3.69635E-1,-8.602598E-2,1.2303238E-2,2.503165E-1,-1.8052347E-2,-8.498761E-3,-6.083493E-3,1.8263231E-4,-3.1553283E-3,4.499985E-3,4.0183105E-3,1.067975E-2],"categories":[],"categories_nodes":[],"categories_segments":[],"categories_sizes":[],"default_left":[0,0,0,0,0,0,0,0,0,0,0,0,0,0,0],"id":27,"left_children":[1,3,5,7,9,11,13,-1,-1,-1,-1,-1,-1,-1,-1],"loss_changes":[4.4998547E1,1.2393599E1,9.277983E0,4.003475E0,5.0795555E0,4.299607E0,5.3880215E0,0E0,0E0,0E0,0E0,0E0,0E0,0E0,0E0],"parents":[2147483647,0,0,1,1,2,2,3,3,4,4,5,5,6,6],"right_children":[2,4,6,8,10,12,14,-1,-1,-1,-1,-1,-1,-1,-1],"split_conditions":[4E0,3E0,4E0,3E0,3E0,4E0,5E0,-1.8052347E-2,-8.498761E-3,-6.083493E-3,1.8263231E-4,-3.1553283E-3,4.499985E-3,4.0183105E-3,1.067975E-2],"split_indices":[5,2,2,3,10,10,7,0,0,0,0,0,0,0,0],"split_type":[0,0,0,0,0,0,0,0,0,0,0,0,0,0,0],"sum_hessian":[1.439E3,6.98E2,7.41E2,2.44E2,4.54E2,2.63E2,4.78E2,6.3E1,1.81E2,2.05E2,2.49E2,1.38E2,1.25E2,2.32E2,2.46E2],"tree_param":{"num_deleted":"0","num_feature":"15","num_nodes":"15","size_leaf_vector":"1"}},{"base_weights":[7.714446E-3,-1.6871001E-1,1.535103E-1,-3.610141E-1,-6.2818944E-2,3.6014337E-2,2.665968E-1,-2.010205E-2,-7.5570424E-3,-5.418141E-3,1.1644402E-3,-8.294192E-3,2.3620243E-3,2.162753E-3,1.0064034E-2],"categories":[],"categories_nodes":[],"categories_segments":[],"categories_sizes":[],"default_left":[0,0,0,0,0,0,0,0,0,0,0,0,0,0,0],"id":28,"left_children":[1,3,5,7,9,11,13,-1,-1,-1,-1,-1,-1,-1,-1],"loss_changes":[3.5918888E1,1.2384651E1,9.9019985E0,6.4954605E0,5.0381155E0,4.888735E0,4.7764874E0,0E0,0E0,0E0,0E0,0E0,0E0,0E0,0E0],"parents":[2147483647,0,0,1,1,2,2,3,3,4,4,5,5,6,6],"right_children":[2,4,6,8,10,12,14,-1,-1,-1,-1,-1,-1,-1,-1],"split_conditions":[4E0,3E0,5E0,3E0,4E0,3E0,3E0,-2.010205E-2,-7.5570424E-3,-5.418141E-3,1.1644402E-3,-8.294192E-3,2.3620243E-3,2.162753E-3,1.0064034E-2],"split_indices":[0,1,0,3,8,12,6,0,0,0,0,0,0,0,0],"split_type":[0,0,0,0,0,0,0,0,0,0,0,0,0,0,0],"sum_hessian":[1.397E3,6.29E2,7.68E2,2.2E2,4.09E2,3.81E2,3.87E2,5.5E1,1.65E2,1.94E2,2.15E2,4.3E1,3.38E2,1.05E2,2.82E2],"tree_param":{"num_deleted":"0","num_feature":"15","num_nodes":"15","size_leaf_vector":"1"}},{"base_weights":[3.6661257E-3,-1.581042E-1,1.5592177E-1,-2.5076455E-1,2.5650823E-2,-3.6624183E-3,2.330579E-1,-1.143632E-2,-4.30769E-3,-2.5322973E-3,4.218571E-3,-5.025018E-3,2.9410433E-3,2.517462E-3,8.981134E-3],"categories":[],"categories_nodes":[],"categories_segments":[],"categories_sizes":[],"default_left":[0,0,0,0,0,0,0,0,0,0,0,0,0,0,0],"id":29,"left_children":[1,3,5,7,9,11,13,-1,-1,-1,-1,-1,-1,-1,-1],"loss_changes":[3.4653347E1,1.1786547E1,9.190994E0,5.835945E0,2.8908355E0,3.9520156E0,4.512167E0,0E0,0E0,0E0,0E0,0E0,0E0,0E0,0E0],"parents":[2147483647,0,0,1,1,2,2,3,3,4,4,5,5,6,6],"right_children":[2,4,6,8,10,12,14,-1,-1,-1,-1,-1,-1,-1,-1],"split_conditions":[4E0,4E0,3E0,3E0,3E0,4E0,4E0,-1.143632E-2,-4.30769E-3,-2.5322973E-3,4.218571E-3,-5.025018E-3,2.9410433E-3,2.517462E-3,8.981134E-3],"split_indices":[5,2,4,1,10,8,12,0,0,0,0,0,0,0,0],"split_type":[0,0,0,0,0,0,0,0,0,0,0,0,0,0,0],"sum_hessian":[1.407E3,6.79E2,7.28E2,4.55E2,2.24E2,2.33E2,4.95E2,2.01E2,2.54E2,1.1E2,1.14E2,9.3E1,1.4E2,1.57E2,3.38E2],"tree_param":{"num_deleted":"0","num_feature":"15","num_nodes":"15","size_leaf_vector":"1"}},{"base_weights":[-2.1070356E-3,-1.7152344E-1,1.4277835E-1,-5.000934E-1,-1.0980871E-1,3.1378627E-2,2.687389E-1,-2.3579152E-2,-1.2647158E-2,-7.7238246E-3,4.547607E-5,-2.3931237E-3,3.8271877E-3,-9.240992E-3,8.814456E-3],"categories":[],"categories_nodes":[],"categories_segments":[],"categories_sizes":[],"default_left":[0,0,0,0,0,0,0,0,0,0,0,0,0,0,0],"id":30,"left_children":[1,3,5,7,9,11,13,-1,-1,-1,-1,-1,-1,-1,-1],"loss_changes":[3.473722E1,1.2671583E1,1.0350203E1,1.0565739E0,9.362383E0,4.39963E0,5.077915E0,0E0,0E0,0E0,0E0,0E0,0E0,0E0,0E0],"parents":[2147483647,0,0,1,1,2,2,3,3,4,4,5,5,6,6],"right_children":[2,4,6,8,10,12,14,-1,-1,-1,-1,-1,-1,-1,-1],"split_conditions":[3E0,2E0,4E0,2E0,4E0,4E0,2E0,-2.3579152E-2,-1.2647158E-2,-7.7238246E-3,4.547607E-5,-2.3931237E-3,3.8271877E-3,-9.240992E-3,8.814456E-3],"split_indices":[4,1,10,0,8,2,1,0,0,0,0,0,0,0,0],"split_type":[0,0,0,0,0,0,0,0,0,0,0,0,0,0,0],"sum_hessian":[1.414E3,6.55E2,7.59E2,1.01E2,5.54E2,4.07E2,3.52E2,1.9E1,8.2E1,2.42E2,3.12E2,1.84E2,2.23E2,1.3E1,3.39E2],"tree_param":{"num_deleted":"0","num_feature":"15","num_nodes":"15","size_leaf_vector":"1"}},{"base_weights":[-0E0,-1.6552834E-1,1.4055853E-1,-3.035888E-1,-4.8786286E-2,-1.5773354E-2,2.3794495E-1,-1.657481E-2,-7.6603405E-3,3.4970639E-3,-3.8154142E-3,-8.106393E-3,1.3718603E-3,2.352798E-3,8.743304E-3],"categories":[],"categories_nodes":[],"categories_segments":[],"categories_sizes":[],"default_left":[0,0,0,0,0,0,0,0,0,0,0,0,0,0,0],"id":31,"left_children":[1,3,5,7,9,11,13,-1,-1,-1,-1,-1,-1,-1,-1],"loss_changes":[3.3289246E1,1.0269043E1,1.1960529E1,2.7693157E0,4.690488E0,4.794144E0,3.7177696E0,0E0,0E0,0E0,0E0,0E0,0E0,0E0,0E0],"parents":[2147483647,0,0,1,1,2,2,3,3,4,4,5,5,6,6],"right_children":[2,4,6,8,10,12,14,-1,-1,-1,-1,-1,-1,-1,-1],"split_conditions":[3E0,4E0,4E0,2E0,1E0,3E0,4E0,-1.657481E-2,-7.6603405E-3,3.4970639E-3,-3.8154142E-3,-8.106393E-3,1.3718603E-3,2.352798E-3,8.743304E-3],"split_indices":[4,8,2,5,14,5,5,0,0,0,0,0,0,0,0],"split_type":[0,0,0,0,0,0,0,0,0,0,0,0,0,0,0],"sum_hessian":[1.43E3,6.59E2,7.71E2,2.98E2,3.61E2,2.92E2,4.79E2,4.5E1,2.53E2,1.12E2,2.49E2,6E1,2.32E2,1.25E2,3.54E2],"tree_param":{"num_deleted":"0","num_feature":"15","num_nodes":"15","size_leaf_vector":"1"}},{"base_weights":[5.9206253E-3,-2.3871158E-1,9.2558816E-2,-3.8232005E-1,-6.724472E-2,-5.803656E-2,1.8265013E-1,-2.5741465E-2,-9.945221E-3,-6.568189E-3,2.546275E-4,-4.2327754E-3,3.6182206E-3,1.9339075E-3,9.108197E-3],"categories":[],"categories_nodes":[],"categories_segments":[],"categories_sizes":[],"default_left":[0,0,0,0,0,0,0,0,0,0,0,0,0,0,0],"id":32,"left_children":[1,3,5,7,9,11,13,-1,-1,-1,-1,-1,-1,-1,-1],"loss_changes":[2.9759708E1,8.562841E0,1.430272E1,3.5457573E0,2.1635807E0,5.7628946E0,9.038267E0,0E0,0E0,0E0,0E0,0E0,0E0,0E0,0E0],"parents":[2147483647,0,0,1,1,2,2,3,3,4,4,5,5,6,6],"right_children":[2,4,6,8,10,12,14,-1,-1,-1,-1,-1,-1,-1,-1],"split_conditions":[3E0,3E0,4E0,2E0,2E0,4E0,4E0,-2.5741465E-2,-9.945221E-3,-6.568189E-3,2.546275E-4,-4.2327754E-3,3.6182206E-3,1.9339075E-3,9.108197E-3],"split_indices":[1,6,3,3,4,6,9,0,0,0,0,0,0,0,0],"split_type":[0,0,0,0,0,0,0,0,0,0,0,0,0,0,0],"sum_hessian":[1.411E3,3.66E2,1.045E3,1.96E2,1.7E2,3.87E2,6.58E2,1.7E1,1.79E2,6.1E1,1.09E2,2.68E2,1.19E2,3.37E2,3.21E2],"tree_param":{"num_deleted":"0","num_feature":"15","num_nodes":"15","size_leaf_vector":"1"}},{"base_weights":[6.072538E-3,-1.593088E-1,1.4266524E-1,-3.4999245E-1,-8.6366646E-2,-1.04717135E-1,2.0953208E-1,-2.0742577E-2,-8.565596E-3,-6.67838E-3,9.117054E-4,-5.464399E-3,-0E0,3.3056742E-4,8.899593E-3],"categories":[],"categories_nodes":[],"categories_segments":[],"categories_sizes":[],"default_left":[0,0,0,0,0,0,0,0,0,0,0,0,0,0,0],"id":33,"left_children":[1,3,5,7,9,11,13,-1,-1,-1,-1,-1,-1,-1,-1],"loss_changes":[3.2061443E1,8.45125E0,1.3024248E1,2.8294983E0,7.6054163E0,1.4642007E0,1.0380569E1,0E0,0E0,0E0,0E0,0E0,0E0,0E0,0E0],"parents":[2147483647,0,0,1,1,2,2,3,3,4,4,5,5,6,6],"right_children":[2,4,6,8,10,12,14,-1,-1,-1,-1,-1,-1,-1,-1],"split_conditions":[4E0,2E0,4E0,3E0,4E0,5E0,3E0,-2.0742577E-2,-8.565596E-3,-6.67838E-3,9.117054E-4,-5.464399E-3,-0E0,3.3056742E-4,8.899593E-3],"split_indices":[0,6,7,3,8,0,6,0,0,0,0,0,0,0,0],"split_type":[0,0,0,0,0,0,0,0,0,0,0,0,0,0,0],"sum_hessian":[1.42E3,6.39E2,7.81E2,1.73E2,4.66E2,1.63E2,6.18E2,2.5E1,1.48E2,2.19E2,2.47E2,9.8E1,6.5E1,1.92E2,4.26E2],"tree_param":{"num_deleted":"0","num_feature":"15","num_nodes":"15","size_leaf_vector":"1"}},{"base_weights":[-1.3396414E-2,-3.1771675E-1,7.560155E-2,-1.687784E-2,-2.359867E-1,-7.495822E-2,1.7100284E-1,-8.069835E-3,-0E0,-3.765376E-3,4.354752E-3,4.2293845E-3,1.3145712E-2],"categories":[],"categories_nodes":[],"categories_segments":[],"categories_sizes":[],"default_left":[0,0,0,0,0,0,0,0,0,0,0,0,0],"id":34,"left_children":[1,3,5,-1,7,9,11,-1,-1,-1,-1,-1,-1],"loss_changes":[3.824132E1,5.6047363E0,1.565209E1,0E0,1.9521828E0,4.609832E0,4.7708797E0,0E0,0E0,0E0,0E0,0E0,0E0],"parents":[2147483647,0,0,1,1,2,2,4,4,5,5,6,6],"right_children":[2,4,6,-1,8,10,12,-1,-1,-1,-1,-1,-1],"split_conditions":[3E0,2E0,4E0,-1.687784E-2,5E0,5E0,5E0,-8.069835E-3,-0E0,-3.765376E-3,4.354752E-3,4.2293845E-3,1.3145712E-2],"split_indices":[2,1,0,0,0,1,13,0,0,0,0,0,0],"split_type":[0,0,0,0,0,0,0,0,0,0,0,0,0],"sum_hessian":[1.403E3,3.2E2,1.083E3,7.7E1,2.43E2,4.16E2,6.67E2,2.14E2,2.9E1,3.42E2,7.4E1,6.03E2,6.4E1],"tree_param":{"num_deleted":"0","num_feature":"15","num_nodes":"13","size_leaf_vector":"1"}},{"base_weights":[4.2854883E-3,-7.9477295E-2,2.2367766E-1,-3.9130864E-1,-3.737394E-2,4.615505E-2,2.9391184E-1,-2.1112956E-2,-8.029906E-3,-4.8195287E-3,1.267962E-3,-3.8052453E-3,4.1258465E-3,3.46178E-3,1.0561452E-2],"categories":[],"categories_nodes":[],"categories_segments":[],"categories_sizes":[],"default_left":[0,0,0,0,0,0,0,0,0,0,0,0,0,0,0],"id":35,"left_children":[1,3,5,7,9,11,13,-1,-1,-1,-1,-1,-1,-1,-1],"loss_changes":[2.6662428E1,1.3238741E1,4.672121E0,3.7017555E0,9.150836E0,1.8762742E0,2.4797497E0,0E0,0E0,0E0,0E0,0E0,0E0,0E0,0E0],"parents":[2147483647,0,0,1,1,2,2,3,3,4,4,5,5,6,6],"right_children":[2,4,6,8,10,12,14,-1,-1,-1,-1,-1,-1,-1,-1],"split_conditions":[5E0,3E0,4E0,2E0,3E0,4E0,4E0,-2.1112956E-2,-8.029906E-3,-4.8195287E-3,1.267962E-3,-3.8052453E-3,4.1258465E-3,3.46178E-3,1.0561452E-2],"split_indices":[0,3,12,1,10,8,1,0,0,0,0,0,0,0,0],"split_type":[0,0,0,0,0,0,0,0,0,0,0,0,0,0,0],"sum_hessian":[1.443E3,1.041E3,4.02E2,1.21E2,9.2E2,1.18E2,2.84E2,3.2E1,8.9E1,3.66E2,5.54E2,3.7E1,8.1E1,7.4E1,2.1E2],"tree_param":{"num_deleted":"0","num_feature":"15","num_nodes":"15","size_leaf_vector":"1"}},{"base_weights":[-6.3385926E-3,-8.857093E-2,2.4928974E-1,-3.4792578E-1,-2.5280295E-2,-1.4982504E-1,2.7478912E-1,-1.4071159E-2,-6.862063E-3,-4.1965204E-3,1.7643607E-3,-1.6370298E-2,-0E0,2.0701438E-4,9.313283E-3],"categories":[],"categories_nodes":[],"categories_segments":[],"categories_sizes":[],"default_left":[0,0,0,0,0,0,0,0,0,0,0,0,0,0,0],"id":36,"left_children":[1,3,5,7,9,11,13,-1,-1,-1,-1,-1,-1,-1,-1],"loss_changes":[2.9374098E1,1.7124977E1,3.5755424E0,2.2750034E0,8.369322E0,1.0875125E0,2.7486668E0,0E0,0E0,0E0,0E0,0E0,0E0,0E0,0E0],"parents":[2147483647,0,0,1,1,2,2,3,3,4,4,5,5,6,6],"right_children":[2,4,6,8,10,12,14,-1,-1,-1,-1,-1,-1,-1,-1],"split_conditions":[5E0,3E0,3E0,4E0,4E0,2E0,3E0,-1.4071159E-2,-6.862063E-3,-4.1965204E-3,1.7643607E-3,-1.6370298E-2,-0E0,2.0701438E-4,9.313283E-3],"split_indices":[5,0,3,8,3,13,12,0,0,0,0,0,0,0,0],"split_type":[0,0,0,0,0,0,0,0,0,0,0,0,0,0,0],"sum_hessian":[1.405E3,1.066E3,3.39E2,2.06E2,8.6E2,1.8E1,3.21E2,9.8E1,1.08E2,3.69E2,4.91E2,5E0,1.3E1,4.1E1,2.8E2],"tree_param":{"num_deleted":"0","num_feature":"15","num_nodes":"15","size_leaf_vector":"1"}},{"base_weights":[3.7569539E-3,-1.5251309E-1,1.3813297E-1,-3.834177E-1,-8.358583E-2,-9.259891E-2,1.9575456E-1,-1.7754203E-2,-9.500695E-3,-4.561462E-3,4.309576E-3,-4.0431106E-3,1.6169428E-4,2.715091E-3,9.077025E-3],"categories":[],"categories_nodes":[],"categories_segments":[],"categories_sizes":[],"default_left":[0,0,0,0,0,0,0,0,0,0,0,0,0,0,0],"id":37,"left_children":[1,3,5,7,9,11,13,-1,-1,-1,-1,-1,-1,-1,-1],"loss_changes":[2.9846544E1,9.941652E0,1.0314134E1,1.1338539E0,7.8963723E0,7.4927807E-1,6.5544605E0,0E0,0E0,0E0,0E0,0E0,0E0,0E0,0E0],"parents":[2147483647,0,0,1,1,2,2,3,3,4,4,5,5,6,6],"right_children":[2,4,6,8,10,12,14,-1,-1,-1,-1,-1,-1,-1,-1],"split_conditions":[3E0,2E0,4E0,3E0,5E0,5E0,4E0,-1.7754203E-2,-9.500695E-3,-4.561462E-3,4.309576E-3,-4.0431106E-3,1.6169428E-4,2.715091E-3,9.077025E-3],"split_indices":[4,6,7,11,11,8,10,0,0,0,0,0,0,0,0],"split_type":[0,0,0,0,0,0,0,0,0,0,0,0,0,0,0],"sum_hessian":[1.422E3,6.54E2,7.68E2,1.47E2,5.07E2,1.5E2,6.18E2,3.2E1,1.15E2,3.93E2,1.14E2,1.12E2,3.8E1,3.16E2,3.02E2],"tree_param":{"num_deleted":"0","num_feature":"15","num_nodes":"15","size_leaf_vector":"1"}},{"base_weights":[1.864873E-4,-3.224549E-1,6.436045E-2,-3.8104445E-1,1.8863212E-1,-0E0,2.3934524E-1,-1.699632E-2,-9.444217E-3,-2.8199404E-3,1.0712156E-2,-2.9818283E-3,2.3449792E-3,2.4788937E-4,9.216606E-3],"categories":[],"categories_nodes":[],"categories_segments":[],"categories_sizes":[],"default_left":[0,0,0,0,0,0,0,0,0,0,0,0,0,0,0],"id":38,"left_children":[1,3,5,7,9,11,13,-1,-1,-1,-1,-1,-1,-1,-1],"loss_changes":[2.8895206E1,7.1105766E0,1.3456649E1,1.684969E0,1.3112209E0,6.6762342E0,4.7037544E0,0E0,0E0,0E0,0E0,0E0,0E0,0E0,0E0],"parents":[2147483647,0,0,1,1,2,2,3,3,4,4,5,5,6,6],"right_children":[2,4,6,8,10,12,14,-1,-1,-1,-1,-1,-1,-1,-1],"split_conditions":[3E0,5E0,5E0,2E0,4E0,4E0,3E0,-1.699632E-2,-9.444217E-3,-2.8199404E-3,1.0712156E-2,-2.9818283E-3,2.3449792E-3,2.4788937E-4,9.216606E-3],"split_indices":[0,5,5,10,8,3,10,0,0,0,0,0,0,0,0],"split_type":[0,0,0,0,0,0,0,0,0,0,0,0,0,0,0],"sum_hessian":[1.408E3,2.31E2,1.177E3,2.09E2,2.2E1,8.57E2,3.2E2,5.1E1,1.58E2,6E0,1.6E1,3.82E2,4.75E2,7.6E1,2.44E2],"tree_param":{"num_deleted":"0","num_feature":"15","num_nodes":"15","size_leaf_vector":"1"}},{"base_weights":[-9.4865035E-4,-2.3503098E-1,7.927288E-2,-3.4147936E-1,-8.441216E-2,1.0143301E-2,2.1535504E-1,-1.0634115E-2,-0E0,-1.2137606E-2,-0E0,-2.6818253E-3,2.4076712E-3,-3.985609E-4,7.636542E-3],"categories":[],"categories_nodes":[],"categories_segments":[],"categories_sizes":[],"default_left":[0,0,0,0,0,0,0,0,0,0,0,0,0,0,0],"id":39,"left_children":[1,3,5,7,9,11,13,-1,-1,-1,-1,-1,-1,-1,-1],"loss_changes":[2.5525808E1,5.153513E0,9.210097E0,9.287796E-1,3.6940303E0,4.6668077E0,3.2256927E0,0E0,0E0,0E0,0E0,0E0,0E0,0E0,0E0],"parents":[2147483647,0,0,1,1,2,2,3,3,4,4,5,5,6,6],"right_children":[2,4,6,8,10,12,14,-1,-1,-1,-1,-1,-1,-1,-1],"split_conditions":[3E0,4E0,5E0,5E0,2E0,4E0,3E0,-1.0634115E-2,-0E0,-1.2137606E-2,-0E0,-2.6818253E-3,2.4076712E-3,-3.985609E-4,7.636542E-3],"split_indices":[5,3,5,9,10,8,12,0,0,0,0,0,0,0,0],"split_type":[0,0,0,0,0,0,0,0,0,0,0,0,0,0,0],"sum_hessian":[1.351E3,3.48E2,1.003E3,2E2,1.48E2,6.7E2,3.33E2,1.93E2,7E0,2.9E1,1.19E2,2.71E2,3.99E2,4.5E1,2.88E2],"tree_param":{"num_deleted":"0","num_feature":"15","num_nodes":"15","size_leaf_vector":"1"}},{"base_weights":[3.578131E-3,-1.2873101E-1,1.2600647E-1,-2.2594678E-1,-1.3546685E-2,-2.5903693E-1,1.4981501E-1,-9.736185E-3,-2.4963003E-3,-8.241562E-3,1.0208634E-3,-1.5966224E-2,-3.1834221E-3,1.9002203E-3,7.4265604E-3],"categories":[],"categories_nodes":[],"categories_segments":[],"categories_sizes":[],"default_left":[0,0,0,0,0,0,0,0,0,0,0,0,0,0,0],"id":40,"left_children":[1,3,5,7,9,11,13,-1,-1,-1,-1,-1,-1,-1,-1],"loss_changes":[2.2610548E1,7.229474E0,6.574237E0,4.6161156E0,4.092776E0,1.0324922E0,5.512286E0,0E0,0E0,0E0,0E0,0E0,0E0,0E0,0E0],"parents":[2147483647,0,0,1,1,2,2,3,3,4,4,5,5,6,6],"right_children":[2,4,6,8,10,12,14,-1,-1,-1,-1,-1,-1,-1,-1],"split_conditions":[4E0,4E0,2E0,3E0,2E0,4E0,5E0,-9.736185E-3,-2.4963003E-3,-8.241562E-3,1.0208634E-3,-1.5966224E-2,-3.1834221E-3,1.9002203E-3,7.4265604E-3],"split_indices":[5,3,1,5,10,12,5,0,0,0,0,0,0,0,0],"split_type":[0,0,0,0,0,0,0,0,0,0,0,0,0,0,0],"sum_hessian":[1.396E3,6.67E2,7.29E2,3.57E2,3.1E2,4E1,6.89E2,2.07E2,1.5E2,5.1E1,2.59E2,1.2E1,2.8E1,3.71E2,3.18E2],"tree_param":{"num_deleted":"0","num_feature":"15","num_nodes":"15","size_leaf_vector":"1"}},{"base_weights":[9.487018E-3,-1.2617947E-1,1.2160957E-1,-2.0268375E-1,1.5472711E-2,-1.3812584E-1,1.5530089E-1,-7.2361166E-3,2.9285839E-3,-1.265513E-2,1.5930615E-3,-1.207216E-2,-3.3890296E-4,5.43272E-4,6.74164E-3],"categories":[],"categories_nodes":[],"categories_segments":[],"categories_sizes":[],"default_left":[0,0,0,0,0,0,0,0,0,0,0,0,0,0,0],"id":41,"left_children":[1,3,5,7,9,11,13,-1,-1,-1,-1,-1,-1,-1,-1],"loss_changes":[2.1276308E1,7.0038214E0,6.7556143E0,4.921404E0,3.1860843E0,2.4356453E0,6.281107E0,0E0,0E0,0E0,0E0,0E0,0E0,0E0,0E0],"parents":[2147483647,0,0,1,1,2,2,3,3,4,4,5,5,6,6],"right_children":[2,4,6,8,10,12,14,-1,-1,-1,-1,-1,-1,-1,-1],"split_conditions":[4E0,4E0,2E0,5E0,3E0,2E0,4E0,-7.2361166E-3,2.9285839E-3,-1.265513E-2,1.5930615E-3,-1.207216E-2,-3.3890296E-4,5.43272E-4,6.74164E-3],"split_indices":[0,2,4,10,8,9,8,0,0,0,0,0,0,0,0],"split_type":[0,0,0,0,0,0,0,0,0,0,0,0,0,0,0],"sum_hessian":[1.399E3,6.29E2,7.7E2,4.13E2,2.16E2,8.5E1,6.85E2,3.69E2,4.4E1,1.5E1,2.01E2,2.5E1,6E1,2.35E2,4.5E2],"tree_param":{"num_deleted":"0","num_feature":"15","num_nodes":"15","size_leaf_vector":"1"}},{"base_weights":[-8.68096E-3,-1.6484548E-1,8.710011E-2,-3.5268033E-1,-6.5752156E-2,3.7729863E-2,2.8595322E-1,-1.40499305E-2,-6.8991133E-3,-6.225608E-3,5.091154E-4,5.318753E-3,-9.018458E-4,3.7876621E-3,9.975092E-3],"categories":[],"categories_nodes":[],"categories_segments":[],"categories_sizes":[],"default_left":[0,0,0,0,0,0,0,0,0,0,0,0,0,0,0],"id":42,"left_children":[1,3,5,7,9,11,13,-1,-1,-1,-1,-1,-1,-1,-1],"loss_changes":[2.116826E1,9.632641E0,8.217468E0,1.8978024E0,4.3773975E0,6.779606E0,7.97225E-1,0E0,0E0,0E0,0E0,0E0,0E0,0E0,0E0],"parents":[2147483647,0,0,1,1,2,2,3,3,4,4,5,5,6,6],"right_children":[2,4,6,8,10,12,14,-1,-1,-1,-1,-1,-1,-1,-1],"split_conditions":[3E0,3E0,5E0,2E0,4E0,1E0,4E0,-1.40499305E-2,-6.8991133E-3,-6.225608E-3,5.091154E-4,5.318753E-3,-9.018458E-4,3.7876621E-3,9.975092E-3],"split_indices":[10,1,1,4,3,14,0,0,0,0,0,0,0,0,0],"split_type":[0,0,0,0,0,0,0,0,0,0,0,0,0,0,0],"sum_hessian":[1.41E3,5.4E2,8.7E2,1.83E2,3.57E2,7.01E2,1.69E2,9E1,9.3E1,1.36E2,2.21E2,2.34E2,4.67E2,4.3E1,1.26E2],"tree_param":{"num_deleted":"0","num_feature":"15","num_nodes":"15","size_leaf_vector":"1"}},{"base_weights":[-0E0,-1.2549154E-1,1.2076743E-1,-2.5960338E-1,-4.2941445E-3,7.493878E-2,3.6223143E-1,-1.3048731E-2,-4.7782776E-3,-1.1292943E-3,8.290164E-3,-2.7525893E-3,3.3550728E-3,6.052377E-3,1.388531E-2],"categories":[],"categories_nodes":[],"categories_segments":[],"categories_sizes":[],"default_left":[0,0,0,0,0,0,0,0,0,0,0,0,0,0,0],"id":43,"left_children":[1,3,5,7,9,11,13,-1,-1,-1,-1,-1,-1,-1,-1],"loss_changes":[2.1504627E1,1.1032786E1,7.5744305E0,5.14052E0,3.2149098E0,3.784306E0,1.1430798E0,0E0,0E0,0E0,0E0,0E0,0E0,0E0,0E0],"parents":[2147483647,0,0,1,1,2,2,3,3,4,4,5,5,6,6],"right_children":[2,4,6,8,10,12,14,-1,-1,-1,-1,-1,-1,-1,-1],"split_conditions":[4E0,3E0,5E0,2E0,5E0,2E0,5E0,-1.3048731E-2,-4.7782776E-3,-1.1292943E-3,8.290164E-3,-2.7525893E-3,3.3550728E-3,6.052377E-3,1.388531E-2],"split_indices":[1,6,6,4,13,6,7,0,0,0,0,0,0,0,0],"split_type":[0,0,0,0,0,0,0,0,0,0,0,0,0,0,0],"sum_hessian":[1.419E3,6.95E2,7.24E2,3.26E2,3.69E2,6.12E2,1.12E2,1.15E2,2.11E2,3.33E2,3.6E1,1.06E2,5.06E2,4.7E1,6.5E1],"tree_param":{"num_deleted":"0","num_feature":"15","num_nodes":"15","size_leaf_vector":"1"}},{"base_weights":[6.2925145E-3,-1.19039565E-1,1.2276785E-1,-3.2419553E-1,-7.278051E-2,-3.1807095E-2,1.8432115E-1,-1.4922117E-2,-4.2012553E-3,-4.868544E-3,7.526894E-4,3.011389E-3,-2.7725124E-3,2.4892848E-3,9.158645E-3],"categories":[],"categories_nodes":[],"categories_segments":[],"categories_sizes":[],"default_left":[0,0,0,0,0,0,0,0,0,0,0,0,0,0,0],"id":44,"left_children":[1,3,5,7,9,11,13,-1,-1,-1,-1,-1,-1,-1,-1],"loss_changes":[2.0222385E1,5.894964E0,7.0222073E0,3.1260195E0,4.911414E0,1.6025894E0,5.9987545E0,0E0,0E0,0E0,0E0,0E0,0E0,0E0,0E0],"parents":[2147483647,0,0,1,1,2,2,3,3,4,4,5,5,6,6],"right_children":[2,4,6,8,10,12,14,-1,-1,-1,-1,-1,-1,-1,-1],"split_conditions":[4E0,2E0,3E0,2E0,4E0,1E0,5E0,-1.4922117E-2,-4.2012553E-3,-4.868544E-3,7.526894E-4,3.011389E-3,-2.7725124E-3,2.4892848E-3,9.158645E-3],"split_indices":[5,10,6,4,3,14,7,0,0,0,0,0,0,0,0],"split_type":[0,0,0,0,0,0,0,0,0,0,0,0,0,0,0],"sum_hessian":[1.385E3,6.63E2,7.22E2,1.18E2,5.45E2,2.01E2,5.21E2,5.8E1,6E1,2.9E2,2.55E2,5.8E1,1.43E2,2.88E2,2.33E2],"tree_param":{"num_deleted":"0","num_feature":"15","num_nodes":"15","size_leaf_vector":"1"}},{"base_weights":[-9.34642E-3,-2.1867579E-1,5.9680585E-2,-4.3975344E-1,-1.4563777E-1,-4.5224544E-2,1.286676E-1,-1.6039133E-2,-5.271544E-3,-9.657226E-3,-1.8340902E-3,-2.9364645E-3,5.0226836E-3,7.0668976E-3,1.6776148E-3],"categories":[],"categories_nodes":[],"categories_segments":[],"categories_sizes":[],"default_left":[0,0,0,0,0,0,0,0,0,0,0,0,0,0,0],"id":45,"left_children":[1,3,5,7,9,11,13,-1,-1,-1,-1,-1,-1,-1,-1],"loss_changes":[2.0460648E1,5.0979004E0,7.7042313E0,1.3933926E0,3.6087809E0,4.5441046E0,4.693103E0,0E0,0E0,0E0,0E0,0E0,0E0,0E0,0E0],"parents":[2147483647,0,0,1,1,2,2,3,3,4,4,5,5,6,6],"right_children":[2,4,6,8,10,12,14,-1,-1,-1,-1,-1,-1,-1,-1],"split_conditions":[3E0,2E0,4E0,3E0,2E0,5E0,1E0,-1.6039133E-2,-5.271544E-3,-9.657226E-3,-1.8340902E-3,-2.9364645E-3,5.0226836E-3,7.0668976E-3,1.6776148E-3],"split_indices":[1,10,8,4,1,1,14,0,0,0,0,0,0,0,0],"split_type":[0,0,0,0,0,0,0,0,0,0,0,0,0,0,0],"sum_hessian":[1.405E3,3.52E2,1.053E3,8.4E1,2.68E2,4.12E2,6.41E2,5.9E1,2.5E1,8.3E1,1.85E2,3.34E2,7.8E1,2.54E2,3.87E2],"tree_param":{"num_deleted":"0","num_feature":"15","num_nodes":"15","size_leaf_vector":"1"}},{"base_weights":[-0E0,-1.2464757E-1,1.13265045E-1,-3.4191793E-1,-7.028356E-2,-1.253984E-1,1.5861623E-1,-1.6492177E-2,-7.185891E-3,-2.8445527E-3,7.124988E-3,-7.595568E-3,-2.9754415E-4,9.6299435E-4,6.7465343E-3],"categories":[],"categories_nodes":[],"categories_segments":[],"categories_sizes":[],"default_left":[0,0,0,0,0,0,0,0,0,0,0,0,0,0,0],"id":46,"left_children":[1,3,5,7,9,11,13,-1,-1,-1,-1,-1,-1,-1,-1],"loss_changes":[1.9898819E1,7.5369415E0,7.9997454E0,1.9971037E0,3.9504883E0,1.4193053E0,4.9578876E0,0E0,0E0,0E0,0E0,0E0,0E0,0E0,0E0],"parents":[2147483647,0,0,1,1,2,2,3,3,4,4,5,5,6,6],"right_children":[2,4,6,8,10,12,14,-1,-1,-1,-1,-1,-1,-1,-1],"split_conditions":[4E0,2E0,4E0,3E0,5E0,4E0,4E0,-1.6492177E-2,-7.185891E-3,-2.8445527E-3,7.124988E-3,-7.595568E-3,-2.9754415E-4,9.6299435E-4,6.7465343E-3],"split_indices":[1,1,7,3,13,0,8,0,0,0,0,0,0,0,0],"split_type":[0,0,0,0,0,0,0,0,0,0,0,0,0,0,0],"sum_hessian":[1.409E3,6.73E2,7.36E2,1.31E2,5.42E2,1.14E2,6.22E2,4E1,9.1E1,5.05E2,3.7E1,5E1,6.4E1,2.19E2,4.03E2],"tree_param":{"num_deleted":"0","num_feature":"15","num_nodes":"15","size_leaf_vector":"1"}},{"base_weights":[-7.055854E-3,-1.305812E-1,9.483741E-2,-3.356939E-1,-7.0007026E-2,4.8353532E-3,1.9795994E-1,-1.366654E-2,-5.882601E-3,-5.2832984E-3,3.0537564E-4,-3.1871984E-3,2.3446924E-3,5.755574E-4,7.2485725E-3],"categories":[],"categories_nodes":[],"categories_segments":[],"categories_sizes":[],"default_left":[0,0,0,0,0,0,0,0,0,0,0,0,0,0,0],"id":47,"left_children":[1,3,5,7,9,11,13,-1,-1,-1,-1,-1,-1,-1,-1],"loss_changes":[1.7594023E1,7.4837666E0,6.8510294E0,1.7069826E0,4.368982E0,3.3193302E0,2.4632254E0,0E0,0E0,0E0,0E0,0E0,0E0,0E0,0E0],"parents":[2147483647,0,0,1,1,2,2,3,3,4,4,5,5,6,6],"right_children":[2,4,6,8,10,12,14,-1,-1,-1,-1,-1,-1,-1,-1],"split_conditions":[3E0,2E0,4E0,4E0,4E0,4E0,3E0,-1.366654E-2,-5.882601E-3,-5.2832984E-3,3.0537564E-4,-3.1871984E-3,2.3446924E-3,5.755574E-4,7.2485725E-3],"split_indices":[4,6,10,3,8,3,6,0,0,0,0,0,0,0,0],"split_type":[0,0,0,0,0,0,0,0,0,0,0,0,0,0,0],"sum_hessian":[1.395E3,6.35E2,7.6E2,1.41E2,4.94E2,4.11E2,3.49E2,7.2E1,6.9E1,2.18E2,2.76E2,1.58E2,2.53E2,7.3E1,2.76E2],"tree_param":{"num_deleted":"0","num_feature":"15","num_nodes":"15","size_leaf_vector":"1"}},{"base_weights":[3.4525697E-3,-1.8733911E-1,7.398413E-2,-4.1145864E-1,-1.1562315E-1,1.2462621E-2,2.2256877E-1,-1.9274846E-2,-8.045278E-3,-7.5164284E-3,-4.9981644E-4,-2.3369114E-3,2.790027E-3,4.4941786E-3,9.538291E-3],"categories":[],"categories_nodes":[],"categories_segments":[],"categories_sizes":[],"default_left":[0,0,0,0,0,0,0,0,0,0,0,0,0,0,0],"id":48,"left_children":[1,3,5,7,9,11,13,-1,-1,-1,-1,-1,-1,-1,-1],"loss_changes":[1.8874512E1,5.5321045E0,9.216983E0,2.0010443E0,3.591749E0,5.3714247E0,1.5998745E0,0E0,0E0,0E0,0E0,0E0,0E0,0E0,0E0],"parents":[2147483647,0,0,1,1,2,2,3,3,4,4,5,5,6,6],"right_children":[2,4,6,8,10,12,14,-1,-1,-1,-1,-1,-1,-1,-1],"split_conditions":[3E0,3E0,5E0,2E0,3E0,4E0,5E0,-1.9274846E-2,-8.045278E-3,-7.5164284E-3,-4.9981644E-4,-2.3369114E-3,2.790027E-3,4.4941786E-3,9.538291E-3],"split_indices":[1,3,5,6,10,0,3,0,0,0,0,0,0,0,0],"split_type":[0,0,0,0,0,0,0,0,0,0,0,0,0,0,0],"sum_hessian":[1.411E3,3.77E2,1.034E3,8.8E1,2.89E2,7.36E2,2.98E2,3.1E1,5.7E1,1.18E2,1.71E2,3.41E2,3.95E2,1.75E2,1.23E2],"tree_param":{"num_deleted":"0","num_feature":"15","num_nodes":"15","size_leaf_vector":"1"}},{"base_weights":[5.8544045E-3,-1.0385675E-1,1.212994E-1,8.108046E-2,-1.7326371E-1,5.485141E-2,2.181752E-1,-2.4491865E-3,6.264808E-3,-8.697762E-3,-2.4818776E-3,-1.1889229E-3,3.4260831E-3,4.038243E-3,9.487489E-3],"categories":[],"categories_nodes":[],"categories_segments":[],"categories_sizes":[],"default_left":[0,0,0,0,0,0,0,0,0,0,0,0,0,0,0],"id":49,"left_children":[1,3,5,7,9,11,13,-1,-1,-1,-1,-1,-1,-1,-1],"loss_changes":[1.7863531E1,9.308649E0,4.175024E0,4.1186523E0,5.1827726E0,2.407454E0,1.8026428E0,0E0,0E0,0E0,0E0,0E0,0E0,0E0,0E0],"parents":[2147483647,0,0,1,1,2,2,3,3,4,4,5,5,6,6],"right_children":[2,4,6,8,10,12,14,-1,-1,-1,-1,-1,-1,-1,-1],"split_conditions":[4E0,1E0,4E0,4E0,3E0,4E0,5E0,-2.4491865E-3,6.264808E-3,-8.697762E-3,-2.4818776E-3,-1.1889229E-3,3.4260831E-3,4.038243E-3,9.487489E-3],"split_indices":[2,14,4,12,10,8,2,0,0,0,0,0,0,0,0],"split_type":[0,0,0,0,0,0,0,0,0,0,0,0,0,0,0],"sum_hessian":[1.409E3,7.18E2,6.91E2,1.92E2,5.26E2,4.16E2,2.75E2,8.1E1,1.11E2,2.25E2,3.01E2,1.54E2,2.62E2,1.54E2,1.21E2],"tree_param":{"num_deleted":"0","num_feature":"15","num_nodes":"15","size_leaf_vector":"1"}},{"base_weights":[-4.0713037E-4,-1.2017226E-1,1.0908674E-1,-3.1966406E-1,-7.328755E-2,-1.2247893E-2,1.6336206E-1,-1.1679127E-2,-2.3531292E-3,-4.4276286E-3,9.015479E-4,-1.4153513E-2,2.8748062E-4,-4.4299583E-3,5.6761713E-3],"categories":[],"categories_nodes":[],"categories_segments":[],"categories_sizes":[],"default_left":[0,0,0,0,0,0,0,0,0,0,0,0,0,0,0],"id":50,"left_children":[1,3,5,7,9,11,13,-1,-1,-1,-1,-1,-1,-1,-1],"loss_changes":[1.8370316E1,5.901554E0,4.938841E0,1.6152039E0,4.332938E0,2.6593404E0,4.125245E0,0E0,0E0,0E0,0E0,0E0,0E0,0E0,0E0],"parents":[2147483647,0,0,1,1,2,2,3,3,4,4,5,5,6,6],"right_children":[2,4,6,8,10,12,14,-1,-1,-1,-1,-1,-1,-1,-1],"split_conditions":[4E0,2E0,4E0,4E0,4E0,2E0,3E0,-1.1679127E-2,-2.3531292E-3,-4.4276286E-3,9.015479E-4,-1.4153513E-2,2.8748062E-4,-4.4299583E-3,5.6761713E-3],"split_indices":[5,10,12,1,0,1,0,0,0,0,0,0,0,0,0],"split_type":[0,0,0,0,0,0,0,0,0,0,0,0,0,0,0],"sum_hessian":[1.4E3,6.73E2,7.27E2,1.24E2,5.49E2,2.19E2,5.08E2,9.3E1,3.1E1,3.25E2,2.24E2,1.2E1,2.07E2,3.6E1,4.72E2],"tree_param":{"num_deleted":"0","num_feature":"15","num_nodes":"15","size_leaf_vector":"1"}},{"base_weights":[6.0876575E-3,-5.19033E-2,1.6441754E-1,-3.2054523E-1,-1.8107114E-2,-2.919112E-2,2.3131244E-1,-1.7838103E-3,-1.2020038E-2,-3.1212806E-3,1.521135E-3,-3.3756152E-3,6.3839103E-3,3.7961311E-3,9.081289E-3],"categories":[],"categories_nodes":[],"categories_segments":[],"categories_sizes":[],"default_left":[0,0,0,0,0,0,0,0,0,0,0,0,0,0,0],"id":51,"left_children":[1,3,5,7,9,11,13,-1,-1,-1,-1,-1,-1,-1,-1],"loss_changes":[1.3003799E1,8.949272E0,5.136813E0,1.8618326E0,5.4464397E0,1.7956486E0,1.7173853E0,0E0,0E0,0E0,0E0,0E0,0E0,0E0,0E0],"parents":[2147483647,0,0,1,1,2,2,3,3,4,4,5,5,6,6],"right_children":[2,4,6,8,10,12,14,-1,-1,-1,-1,-1,-1,-1,-1],"split_conditions":[5E0,3E0,2E0,1E0,3E0,5E0,4E0,-1.7838103E-3,-1.2020038E-2,-3.1212806E-3,1.521135E-3,-3.3756152E-3,6.3839103E-3,3.7961311E-3,9.081289E-3],"split_indices":[0,3,13,14,6,10,10,0,0,0,0,0,0,0,0],"split_type":[0,0,0,0,0,0,0,0,0,0,0,0,0,0,0],"sum_hessian":[1.404E3,1.023E3,3.81E2,1.11E2,9.12E2,9.4E1,2.87E2,2.9E1,8.2E1,4.12E2,5E2,7.3E1,2.1E1,1.22E2,1.65E2],"tree_param":{"num_deleted":"0","num_feature":"15","num_nodes":"15","size_leaf_vector":"1"}},{"base_weights":[-5.2474802E-3,-1.1799568E-1,1.1079973E-1,3.3392705E-2,-1.7447303E-1,-1.5367501E-2,1.634567E-1,-3.5981871E-3,4.401777E-3,-8.167107E-3,-2.8075692E-3,-1.677003E-3,8.298085E-3,1.4814532E-3,6.393042E-3],"categories":[],"categories_nodes":[],"categories_segments":[],"categories_sizes":[],"default_left":[0,0,0,0,0,0,0,0,0,0,0,0,0,0,0],"id":52,"left_children":[1,3,5,7,9,11,13,-1,-1,-1,-1,-1,-1,-1,-1],"loss_changes":[1.8390636E1,6.2715855E0,4.7189665E0,3.3288875E0,3.801447E0,2.1109307E0,2.5181065E0,0E0,0E0,0E0,0E0,0E0,0E0,0E0,0E0],"parents":[2147483647,0,0,1,1,2,2,3,3,4,4,5,5,6,6],"right_children":[2,4,6,8,10,12,14,-1,-1,-1,-1,-1,-1,-1,-1],"split_conditions":[4E0,1E0,4E0,4E0,3E0,5E0,4E0,-3.5981871E-3,4.401777E-3,-8.167107E-3,-2.8075692E-3,-1.677003E-3,8.298085E-3,1.4814532E-3,6.393042E-3],"split_indices":[2,14,3,12,2,1,8,0,0,0,0,0,0,0,0],"split_type":[0,0,0,0,0,0,0,0,0,0,0,0,0,0,0],"sum_hessian":[1.405E3,7.17E2,6.88E2,1.9E2,5.27E2,1.97E2,4.91E2,7.7E1,1.13E2,2.33E2,2.94E2,1.76E2,2.1E1,1.55E2,3.36E2],"tree_param":{"num_deleted":"0","num_feature":"15","num_nodes":"15","size_leaf_vector":"1"}},{"base_weights":[1.7071496E-3,-2.0910877E-1,6.2331226E-2,-3.3072323E-1,-9.398997E-2,1.0985462E-3,1.9475979E-1,-1.1730543E-2,-5.296381E-3,-3.991689E-3,6.4292917E-4,-2.3893157E-3,1.9091666E-3,8.620036E-4,7.834511E-3],"categories":[],"categories_nodes":[],"categories_segments":[],"categories_sizes":[],"default_left":[0,0,0,0,0,0,0,0,0,0,0,0,0,0,0],"id":53,"left_children":[1,3,5,7,9,11,13,-1,-1,-1,-1,-1,-1,-1,-1],"loss_changes":[1.7861233E1,3.9291515E0,8.707853E0,7.9836273E-1,8.5118675E-1,3.801637E0,3.4798765E0,0E0,0E0,0E0,0E0,0E0,0E0,0E0,0E0],"parents":[2147483647,0,0,1,1,2,2,3,3,4,4,5,5,6,6],"right_children":[2,4,6,8,10,12,14,-1,-1,-1,-1,-1,-1,-1,-1],"split_conditions":[3E0,3E0,5E0,4E0,5E0,4E0,4E0,-1.1730543E-2,-5.296381E-3,-3.991689E-3,6.4292917E-4,-2.3893157E-3,1.9091666E-3,8.620036E-4,7.834511E-3],"split_indices":[2,10,0,3,8,8,12,0,0,0,0,0,0,0,0],"split_type":[0,0,0,0,0,0,0,0,0,0,0,0,0,0,0],"sum_hessian":[1.409E3,3.11E2,1.098E3,1.47E2,1.64E2,7.56E2,3.42E2,1.01E2,4.6E1,1.29E2,3.5E1,3.23E2,4.33E2,1.02E2,2.4E2],"tree_param":{"num_deleted":"0","num_feature":"15","num_nodes":"15","size_leaf_vector":"1"}},{"base_weights":[2.3916455E-3,-1.03293784E-1,8.938548E-2,-2.902491E-1,-5.130899E-2,1.19075505E-2,1.6079901E-1,-1.6753063E-2,-5.608631E-3,-2.5700259E-3,4.3743243E-3,-2.9608214E-3,2.466774E-3,2.3077053E-3,7.1270983E-3],"categories":[],"categories_nodes":[],"categories_segments":[],"categories_sizes":[],"default_left":[0,0,0,0,0,0,0,0,0,0,0,0,0,0,0],"id":54,"left_children":[1,3,5,7,9,11,13,-1,-1,-1,-1,-1,-1,-1,-1],"loss_changes":[1.2839461E1,5.7423806E0,4.0987844E0,2.9105387E0,3.2857869E0,2.9157374E0,2.2288733E0,0E0,0E0,0E0,0E0,0E0,0E0,0E0,0E0],"parents":[2147483647,0,0,1,1,2,2,3,3,4,4,5,5,6,6],"right_children":[2,4,6,8,10,12,14,-1,-1,-1,-1,-1,-1,-1,-1],"split_conditions":[3E0,2E0,4E0,2E0,5E0,3E0,5E0,-1.6753063E-2,-5.608631E-3,-2.5700259E-3,4.3743243E-3,-2.9608214E-3,2.466774E-3,2.3077053E-3,7.1270983E-3],"split_indices":[4,6,9,1,5,10,7,0,0,0,0,0,0,0,0],"split_type":[0,0,0,0,0,0,0,0,0,0,0,0,0,0,0],"sum_hessian":[1.398E3,6.26E2,7.72E2,1.32E2,4.94E2,3.77E2,3.95E2,3.4E1,9.8E1,4.25E2,6.9E1,1.41E2,2.36E2,1.95E2,2E2],"tree_param":{"num_deleted":"0","num_feature":"15","num_nodes":"15","size_leaf_vector":"1"}},{"base_weights":[-8.154494E-3,-1.07354015E-1,8.322081E-2,-3.1832922E-1,-6.3732356E-2,-2.1145826E-2,1.4198714E-1,-2.2317024E-2,-8.113112E-3,-3.0708285E-3,2.8820725E-3,-2.7152507E-3,2.6717063E-3,-0E0,5.406534E-3],"categories":[],"categories_nodes":[],"categories_segments":[],"categories_sizes":[],"default_left":[0,0,0,0,0,0,0,0,0,0,0,0,0,0,0],"id":55,"left_children":[1,3,5,7,9,11,13,-1,-1,-1,-1,-1,-1,-1,-1],"loss_changes":[1.2496909E1,5.73788E0,4.4816694E0,1.2258224E0,3.4324136E0,1.912593E0,2.5283594E0,0E0,0E0,0E0,0E0,0E0,0E0,0E0,0E0],"parents":[2147483647,0,0,1,1,2,2,3,3,4,4,5,5,6,6],"right_children":[2,4,6,8,10,12,14,-1,-1,-1,-1,-1,-1,-1,-1],"split_conditions":[4E0,2E0,4E0,2E0,5E0,4E0,4E0,-2.2317024E-2,-8.113112E-3,-3.0708285E-3,2.8820725E-3,-2.7152507E-3,2.6717063E-3,-0E0,5.406534E-3],"split_indices":[5,10,8,8,8,4,11,0,0,0,0,0,0,0,0],"split_type":[0,0,0,0,0,0,0,0,0,0,0,0,0,0,0],"sum_hessian":[1.376E3,6.65E2,7.11E2,1.1E2,5.55E2,2.5E2,4.61E2,9E0,1.01E2,4.52E2,1.03E2,1.59E2,9.1E1,9.7E1,3.64E2],"tree_param":{"num_deleted":"0","num_feature":"15","num_nodes":"15","size_leaf_vector":"1"}},{"base_weights":[7.0491666E-3,-5.0450068E-2,1.6048604E-1,-2.035099E-1,-7.3030465E-3,-6.7490153E-4,2.2210373E-1,6.301447E-4,-7.893166E-3,-1.5830558E-3,2.1861757E-3,-6.9466443E-3,1.6172244E-3,9.77279E-4,8.833295E-3],"categories":[],"categories_nodes":[],"categories_segments":[],"categories_sizes":[],"default_left":[0,0,0,0,0,0,0,0,0,0,0,0,0,0,0],"id":56,"left_children":[1,3,5,7,9,11,13,-1,-1,-1,-1,-1,-1,-1,-1],"loss_changes":[1.2417597E1,6.459355E0,4.0447206E0,3.1457691E0,2.870631E0,1.4632998E0,3.5530462E0,0E0,0E0,0E0,0E0,0E0,0E0,0E0,0E0],"parents":[2147483647,0,0,1,1,2,2,3,3,4,4,5,5,6,6],"right_children":[2,4,6,8,10,12,14,-1,-1,-1,-1,-1,-1,-1,-1],"split_conditions":[5E0,3E0,2E0,1E0,4E0,2E0,4E0,6.301447E-4,-7.893166E-3,-1.5830558E-3,2.1861757E-3,-6.9466443E-3,1.6172244E-3,9.77279E-4,8.833295E-3],"split_indices":[0,0,13,14,9,6,12,0,0,0,0,0,0,0,0],"split_type":[0,0,0,0,0,0,0,0,0,0,0,0,0,0,0],"sum_hessian":[1.395E3,1.01E3,3.85E2,2.17E2,7.93E2,1.02E2,2.83E2,4.2E1,1.75E2,5.14E2,2.79E2,2.3E1,7.9E1,8.2E1,2.01E2],"tree_param":{"num_deleted":"0","num_feature":"15","num_nodes":"15","size_leaf_vector":"1"}},{"base_weights":[-6.895001E-3,-1.8471271E-1,4.4253588E-2,-1.0947314E-2,-1.2397688E-1,-2.394187E-4,1.609313E-1,-6.8423618E-3,-6.0572143E-4,-2.2321525E-3,1.6090247E-3,-1.0801911E-3,5.4837093E-3],"categories":[],"categories_nodes":[],"categories_segments":[],"categories_sizes":[],"default_left":[0,0,0,0,0,0,0,0,0,0,0,0,0],"id":57,"left_children":[1,3,5,-1,7,9,11,-1,-1,-1,-1,-1,-1],"loss_changes":[1.2910189E1,2.991108E0,5.798542E0,0E0,2.3664403E0,3.137395E0,1.46418E0,0E0,0E0,0E0,0E0,0E0,0E0],"parents":[2147483647,0,0,1,1,2,2,4,4,5,5,6,6],"right_children":[2,4,6,-1,8,10,12,-1,-1,-1,-1,-1,-1],"split_conditions":[3E0,3E0,5E0,-1.0947314E-2,4E0,3E0,3E0,-6.8423618E-3,-6.0572143E-4,-2.2321525E-3,1.6090247E-3,-1.0801911E-3,5.4837093E-3],"split_indices":[2,3,5,0,8,4,11,0,0,0,0,0,0],"split_type":[0,0,0,0,0,0,0,0,0,0,0,0,0],"sum_hessian":[1.404E3,3.18E2,1.086E3,7.6E1,2.42E2,7.8E2,3.06E2,1.16E2,1.26E2,3.36E2,4.44E2,2.6E1,2.8E2],"tree_param":{"num_deleted":"0","num_feature":"15","num_nodes":"13","size_leaf_vector":"1"}},{"base_weights":[-2.1429567E-3,-1.10134035E-1,7.4177384E-2,-3.6021996E-1,-7.108334E-2,-0E0,1.9058166E-1,-1.616808E-2,-8.163518E-3,-4.0060678E-3,1.2398268E-3,-4.1753133E-3,2.0316597E-3,3.9403685E-3,9.019058E-3],"categories":[],"categories_nodes":[],"categories_segments":[],"categories_sizes":[],"default_left":[0,0,0,0,0,0,0,0,0,0,0,0,0,0,0],"id":58,"left_children":[1,3,5,7,9,11,13,-1,-1,-1,-1,-1,-1,-1,-1],"loss_changes":[1.1492385E1,5.242602E0,7.0628343E0,3.685398E-1,3.6446123E0,4.6664753E0,1.6342583E0,0E0,0E0,0E0,0E0,0E0,0E0,0E0,0E0],"parents":[2147483647,0,0,1,1,2,2,3,3,4,4,5,5,6,6],"right_children":[2,4,6,8,10,12,14,-1,-1,-1,-1,-1,-1,-1,-1],"split_conditions":[3E0,3E0,5E0,2E0,4E0,4E0,5E0,-1.616808E-2,-8.163518E-3,-4.0060678E-3,1.2398268E-3,-4.1753133E-3,2.0316597E-3,3.9403685E-3,9.019058E-3],"split_indices":[6,3,7,3,9,11,9,0,0,0,0,0,0,0,0],"split_type":[0,0,0,0,0,0,0,0,0,0,0,0,0,0,0],"sum_hessian":[1.39E3,5.81E2,8.09E2,7.5E1,5.06E2,4.92E2,3.17E2,2.1E1,5.4E1,3.31E2,1.75E2,1.63E2,3.29E2,2.12E2,1.05E2],"tree_param":{"num_deleted":"0","num_feature":"15","num_nodes":"15","size_leaf_vector":"1"}},{"base_weights":[3.4375855E-4,-1.02958344E-1,7.7053204E-2,-1.3826624E-1,1.2248626E-1,-9.4556086E-2,1.1778276E-1,-7.325151E-3,-2.333518E-3,-4.428033E-3,5.6323744E-3,-5.8756066E-3,-4.0948493E-4,-2.72433E-4,5.029682E-3],"categories":[],"categories_nodes":[],"categories_segments":[],"categories_sizes":[],"default_left":[0,0,0,0,0,0,0,0,0,0,0,0,0,0,0],"id":59,"left_children":[1,3,5,7,9,11,13,-1,-1,-1,-1,-1,-1,-1,-1],"loss_changes":[1.1179139E1,4.768134E0,5.7338867E0,3.00873E0,1.3977833E0,1.0362884E0,4.366189E0,0E0,0E0,0E0,0E0,0E0,0E0,0E0,0E0],"parents":[2147483647,0,0,1,1,2,2,3,3,4,4,5,5,6,6],"right_children":[2,4,6,8,10,12,14,-1,-1,-1,-1,-1,-1,-1,-1],"split_conditions":[4E0,5E0,4E0,3E0,2E0,4E0,2E0,-7.325151E-3,-2.333518E-3,-4.428033E-3,5.6323744E-3,-5.8756066E-3,-4.0948493E-4,-2.72433E-4,5.029682E-3],"split_indices":[3,10,7,1,1,8,13,0,0,0,0,0,0,0,0],"split_type":[0,0,0,0,0,0,0,0,0,0,0,0,0,0,0],"sum_hessian":[1.414E3,5.97E2,8.17E2,5.2E2,7.7E1,1.52E2,6.65E2,1.83E2,3.37E2,1.2E1,6.5E1,6.2E1,9E1,1.82E2,4.83E2],"tree_param":{"num_deleted":"0","num_feature":"15","num_nodes":"15","size_leaf_vector":"1"}},{"base_weights":[-0E0,-2.1580549E-1,4.8728645E-2,-1.0361559E-2,-1.058518E-1,-1.3565932E-1,9.436777E-2,-5.0491462E-3,-0E0,-5.506092E-3,1.3452474E-3,1.8230727E-3,7.38636E-3],"categories":[],"categories_nodes":[],"categories_segments":[],"categories_sizes":[],"default_left":[0,0,0,0,0,0,0,0,0,0,0,0,0],"id":60,"left_children":[1,3,5,-1,7,9,11,-1,-1,-1,-1,-1,-1],"loss_changes":[1.5052272E1,3.3099527E0,9.72909E0,0E0,9.874618E-1,2.0919237E0,4.463071E0,0E0,0E0,0E0,0E0,0E0,0E0],"parents":[2147483647,0,0,1,1,2,2,4,4,5,5,6,6],"right_children":[2,4,6,-1,8,10,12,-1,-1,-1,-1,-1,-1],"split_conditions":[2E0,4E0,3E0,-1.0361559E-2,5E0,5E0,5E0,-5.0491462E-3,-0E0,-5.506092E-3,1.3452474E-3,1.8230727E-3,7.38636E-3],"split_indices":[6,3,2,0,8,11,10,0,0,0,0,0,0],"split_type":[0,0,0,0,0,0,0,0,0,0,0,0,0],"sum_hessian":[1.425E3,2.64E2,1.161E3,1.17E2,1.47E2,2.26E2,9.35E2,9.3E1,5.4E1,1.83E2,4.3E1,7.71E2,1.64E2],"tree_param":{"num_deleted":"0","num_feature":"15","num_nodes":"13","size_leaf_vector":"1"}},{"base_weights":[1.1311003E-2,-7.699981E-2,1.0215665E-1,4.9236666E-2,-1.2949677E-1,6.106664E-2,2.1290451E-1,-2.3899055E-3,4.582374E-3,-5.8293757E-3,-8.019372E-4,-6.816142E-4,3.1060304E-3,-3.4679397E-4,7.528323E-3],"categories":[],"categories_nodes":[],"categories_segments":[],"categories_sizes":[],"default_left":[0,0,0,0,0,0,0,0,0,0,0,0,0,0,0],"id":61,"left_children":[1,3,5,7,9,11,13,-1,-1,-1,-1,-1,-1,-1,-1],"loss_changes":[1.1457596E1,4.8319716E0,2.947791E0,2.8085186E0,3.189313E0,1.9418364E0,1.8191261E0,0E0,0E0,0E0,0E0,0E0,0E0,0E0,0E0],"parents":[2147483647,0,0,1,1,2,2,3,3,4,4,5,5,6,6],"right_children":[2,4,6,8,10,12,14,-1,-1,-1,-1,-1,-1,-1,-1],"split_conditions":[4E0,1E0,5E0,4E0,3E0,4E0,2E0,-2.3899055E-3,4.582374E-3,-5.8293757E-3,-8.019372E-4,-6.816142E-4,3.1060304E-3,-3.4679397E-4,7.528323E-3],"split_indices":[2,14,1,12,4,0,6,0,0,0,0,0,0,0,0],"split_type":[0,0,0,0,0,0,0,0,0,0,0,0,0,0,0],"sum_hessian":[1.425E3,7.17E2,7.08E2,2.05E2,5.12E2,5.23E2,1.85E2,8.7E1,1.18E2,3.08E2,2.04E2,1.68E2,3.55E2,2.3E1,1.62E2],"tree_param":{"num_deleted":"0","num_feature":"15","num_nodes":"15","size_leaf_vector":"1"}},{"base_weights":[4.0235147E-3,-8.216841E-2,9.0530805E-2,5.9903808E-2,-1.3684374E-1,3.87209E-2,1.8741587E-1,-7.5485557E-3,3.667184E-3,-1.2732296E-2,-3.4091596E-3,-3.779336E-3,2.206109E-3,-0E0,6.779756E-3],"categories":[],"categories_nodes":[],"categories_segments":[],"categories_sizes":[],"default_left":[0,0,0,0,0,0,0,0,0,0,0,0,0,0,0],"id":62,"left_children":[1,3,5,7,9,11,13,-1,-1,-1,-1,-1,-1,-1,-1],"loss_changes":[1.0544163E1,5.5301275E0,3.3427806E0,3.560723E0,2.8781118E0,2.6427662E0,1.6984997E0,0E0,0E0,0E0,0E0,0E0,0E0,0E0,0E0],"parents":[2147483647,0,0,1,1,2,2,3,3,4,4,5,5,6,6],"right_children":[2,4,6,8,10,12,14,-1,-1,-1,-1,-1,-1,-1,-1],"split_conditions":[4E0,1E0,5E0,2E0,2E0,4E0,2E0,-7.5485557E-3,3.667184E-3,-1.2732296E-2,-3.4091596E-3,-3.779336E-3,2.206109E-3,-0E0,6.779756E-3],"split_indices":[1,14,1,1,0,7,6,0,0,0,0,0,0,0,0],"split_type":[0,0,0,0,0,0,0,0,0,0,0,0,0,0,0],"sum_hessian":[1.413E3,7.02E2,7.11E2,1.9E2,5.12E2,4.7E2,2.41E2,2.9E1,1.61E2,3.5E1,4.77E2,7.7E1,3.93E2,4.2E1,1.99E2],"tree_param":{"num_deleted":"0","num_feature":"15","num_nodes":"15","size_leaf_vector":"1"}},{"base_weights":[-1.4164075E-3,-1.049267E-1,8.482047E-2,-1.3980848E-1,1.1794185E-1,-1.3615119E-2,1.3811277E-1,-6.981798E-3,-1.955582E-3,-1.8237261E-3,5.9637893E-3,-2.4596143E-3,9.642814E-4,1.7357225E-4,5.8947345E-3],"categories":[],"categories_nodes":[],"categories_segments":[],"categories_sizes":[],"default_left":[0,0,0,0,0,0,0,0,0,0,0,0,0,0,0],"id":63,"left_children":[1,3,5,7,9,11,13,-1,-1,-1,-1,-1,-1,-1,-1],"loss_changes":[1.2526176E1,5.013052E0,4.1061754E0,3.5779848E0,1.3376795E0,8.633265E-1,3.6525831E0,0E0,0E0,0E0,0E0,0E0,0E0,0E0,0E0],"parents":[2147483647,0,0,1,1,2,2,3,3,4,4,5,5,6,6],"right_children":[2,4,6,8,10,12,14,-1,-1,-1,-1,-1,-1,-1,-1],"split_conditions":[3E0,5E0,3E0,2E0,4E0,2E0,4E0,-6.981798E-3,-1.955582E-3,-1.8237261E-3,5.9637893E-3,-2.4596143E-3,9.642814E-4,1.7357225E-4,5.8947345E-3],"split_indices":[4,5,6,4,11,6,3,0,0,0,0,0,0,0,0],"split_type":[0,0,0,0,0,0,0,0,0,0,0,0,0,0,0],"sum_hessian":[1.401E3,6.42E2,7.59E2,5.59E2,8.3E1,2.6E2,4.99E2,2.43E2,3.16E2,2.2E1,6.1E1,1.13E2,1.47E2,1.58E2,3.41E2],"tree_param":{"num_deleted":"0","num_feature":"15","num_nodes":"15","size_leaf_vector":"1"}},{"base_weights":[3.6159954E-3,-9.279366E-2,9.442661E-2,-2.716367E-1,-4.9585354E-2,3.4849875E-2,2.0783709E-1,-1.0529883E-3,-9.497972E-3,-2.1776946E-3,6.837244E-3,-1.9145285E-3,2.4391322E-3,2.582112E-3,8.173432E-3],"categories":[],"categories_nodes":[],"categories_segments":[],"categories_sizes":[],"default_left":[0,0,0,0,0,0,0,0,0,0,0,0,0,0,0],"id":64,"left_children":[1,3,5,7,9,11,13,-1,-1,-1,-1,-1,-1,-1,-1],"loss_changes":[1.23901615E1,4.941151E0,4.7166724E0,1.0096111E0,3.3750362E0,2.2497745E0,1.5845795E0,0E0,0E0,0E0,0E0,0E0,0E0,0E0,0E0],"parents":[2147483647,0,0,1,1,2,2,3,3,4,4,5,5,6,6],"right_children":[2,4,6,8,10,12,14,-1,-1,-1,-1,-1,-1,-1,-1],"split_conditions":[4E0,2E0,5E0,1E0,5E0,2E0,5E0,-1.0529883E-3,-9.497972E-3,-2.1776946E-3,6.837244E-3,-1.9145285E-3,2.4391322E-3,2.582112E-3,8.173432E-3],"split_indices":[1,10,5,14,13,13,7,0,0,0,0,0,0,0,0],"split_type":[0,0,0,0,0,0,0,0,0,0,0,0,0,0,0],"sum_hessian":[1.415E3,6.81E2,7.34E2,1.28E2,5.53E2,4.87E2,2.47E2,2.4E1,1.04E2,5.14E2,3.9E1,1.49E2,3.38E2,9.1E1,1.56E2],"tree_param":{"num_deleted":"0","num_feature":"15","num_nodes":"15","size_leaf_vector":"1"}},{"base_weights":[-2.1533922E-3,-1.9921637E-1,3.4316372E-2,-2.3949343E-1,1.424609E-1,-1.0206017E-1,6.8638176E-2,-1.16093205E-2,-5.879196E-3,-0E0,7.6706777E-3,-3.8708418E-3,3.6371734E-3,3.4049008E-4,4.4229683E-3],"categories":[],"categories_nodes":[],"categories_segments":[],"categories_sizes":[],"default_left":[0,0,0,0,0,0,0,0,0,0,0,0,0,0,0],"id":65,"left_children":[1,3,5,7,9,11,13,-1,-1,-1,-1,-1,-1,-1,-1],"loss_changes":[1.0276925E1,3.1801443E0,5.503949E0,7.193184E-1,4.895316E-1,1.4050894E0,4.134058E0,0E0,0E0,0E0,0E0,0E0,0E0,0E0,0E0],"parents":[2147483647,0,0,1,1,2,2,3,3,4,4,5,5,6,6],"right_children":[2,4,6,8,10,12,14,-1,-1,-1,-1,-1,-1,-1,-1],"split_conditions":[3E0,5E0,3E0,3E0,4E0,5E0,5E0,-1.16093205E-2,-5.879196E-3,-0E0,7.6706777E-3,-3.8708418E-3,3.6371734E-3,3.4049008E-4,4.4229683E-3],"split_indices":[0,5,5,8,8,9,7,0,0,0,0,0,0,0,0],"split_type":[0,0,0,0,0,0,0,0,0,0,0,0,0,0,0],"sum_hessian":[1.407E3,2.24E2,1.183E3,2.03E2,2.1E1,2.32E2,9.51E2,4.1E1,1.62E2,7E0,1.4E1,2.11E2,2.1E1,5.58E2,3.93E2],"tree_param":{"num_deleted":"0","num_feature":"15","num_nodes":"15","size_leaf_vector":"1"}},{"base_weights":[3.227494E-5,-1.8426216E-1,3.7606433E-2,-2.8635985E-1,-8.395096E-2,-2.0166794E-2,1.1389579E-1,-1.4611116E-2,-6.3504195E-3,-5.428561E-3,2.156929E-3,-1.7041628E-3,2.6431954E-3,-0E0,5.5341963E-3],"categories":[],"categories_nodes":[],"categories_segments":[],"categories_sizes":[],"default_left":[0,0,0,0,0,0,0,0,0,0,0,0,0,0,0],"id":66,"left_children":[1,3,5,7,9,11,13,-1,-1,-1,-1,-1,-1,-1,-1],"loss_changes":[9.769665E0,2.0670376E0,5.35633E0,9.938679E-1,1.9990213E0,2.6346035E0,4.016322E0,0E0,0E0,0E0,0E0,0E0,0E0,0E0,0E0],"parents":[2147483647,0,0,1,1,2,2,3,3,4,4,5,5,6,6],"right_children":[2,4,6,8,10,12,14,-1,-1,-1,-1,-1,-1,-1,-1],"split_conditions":[3E0,4E0,4E0,2E0,3E0,5E0,3E0,-1.4611116E-2,-6.3504195E-3,-5.428561E-3,2.156929E-3,-1.7041628E-3,2.6431954E-3,-0E0,5.5341963E-3],"split_indices":[0,8,10,0,9,11,4,0,0,0,0,0,0,0,0],"split_type":[0,0,0,0,0,0,0,0,0,0,0,0,0,0,0],"sum_hessian":[1.432E3,2.38E2,1.194E3,1.13E2,1.25E2,6.72E2,5.22E2,2.7E1,8.6E1,8.1E1,4.4E1,5.09E2,1.63E2,2.05E2,3.17E2],"tree_param":{"num_deleted":"0","num_feature":"15","num_nodes":"15","size_leaf_vector":"1"}},{"base_weights":[-2.8211728E-3,-8.463414E-2,8.0023535E-2,-1.15708135E-1,1.0366641E-1,3.1698573E-2,2.034492E-1,-7.5650043E-3,-1.7546201E-3,2.7153722E-4,1.0490438E-2,-1.859958E-4,4.617682E-3,-0E0,6.8575777E-3],"categories":[],"categories_nodes":[],"categories_segments":[],"categories_sizes":[],"default_left":[0,0,0,0,0,0,0,0,0,0,0,0,0,0,0],"id":67,"left_children":[1,3,5,7,9,11,13,-1,-1,-1,-1,-1,-1,-1,-1],"loss_changes":[9.5817375E0,4.207567E0,3.9161677E0,4.530407E0,1.8993123E0,2.4916236E0,9.1396475E-1,0E0,0E0,0E0,0E0,0E0,0E0,0E0,0E0],"parents":[2147483647,0,0,1,1,2,2,3,3,4,4,5,5,6,6],"right_children":[2,4,6,8,10,12,14,-1,-1,-1,-1,-1,-1,-1,-1],"split_conditions":[4E0,5E0,5E0,2E0,5E0,4E0,3E0,-7.5650043E-3,-1.7546201E-3,2.7153722E-4,1.0490438E-2,-1.859958E-4,4.617682E-3,-0E0,6.8575777E-3],"split_indices":[2,10,9,4,5,13,11,0,0,0,0,0,0,0,0],"split_type":[0,0,0,0,0,0,0,0,0,0,0,0,0,0,0],"sum_hessian":[1.413E3,7.17E2,6.96E2,6.2E2,9.7E1,5.06E2,1.9E2,1.78E2,4.42E2,7.3E1,2.4E1,3.8E2,1.26E2,2.2E1,1.68E2],"tree_param":{"num_deleted":"0","num_feature":"15","num_nodes":"15","size_leaf_vector":"1"}},{"base_weights":[-0E0,-8.524397E-2,7.0507936E-2,-2.5017837E-1,-3.4674585E-2,-2.4053788E-2,1.2117285E-1,-1.3965227E-2,-4.783582E-3,-5.237282E-3,1.056477E-3,-6.2067946E-3,3.1749855E-4,3.658008E-4,5.2483897E-3],"categories":[],"categories_nodes":[],"categories_segments":[],"categories_sizes":[],"default_left":[0,0,0,0,0,0,0,0,0,0,0,0,0,0,0],"id":68,"left_children":[1,3,5,7,9,11,13,-1,-1,-1,-1,-1,-1,-1,-1],"loss_changes":[8.468335E0,5.069829E0,3.7622817E0,2.2267303E0,4.9893E0,1.8429806E0,2.7723012E0,0E0,0E0,0E0,0E0,0E0,0E0,0E0,0E0],"parents":[2147483647,0,0,1,1,2,2,3,3,4,4,5,5,6,6],"right_children":[2,4,6,8,10,12,14,-1,-1,-1,-1,-1,-1,-1,-1],"split_conditions":[3E0,2E0,4E0,2E0,4E0,3E0,3E0,-1.3965227E-2,-4.783582E-3,-5.237282E-3,1.056477E-3,-6.2067946E-3,3.1749855E-4,3.658008E-4,5.2483897E-3],"split_indices":[4,6,3,1,11,5,6,0,0,0,0,0,0,0,0],"split_type":[0,0,0,0,0,0,0,0,0,0,0,0,0,0,0],"sum_hessian":[1.407E3,6.42E2,7.65E2,1.46E2,4.96E2,2.6E2,5.05E2,4E1,1.06E2,1.7E2,3.26E2,4.6E1,2.14E2,1.73E2,3.32E2],"tree_param":{"num_deleted":"0","num_feature":"15","num_nodes":"15","size_leaf_vector":"1"}},{"base_weights":[1.3230172E-2,-1.4398286E-1,5.0425045E-2,-1.8395792E-1,8.251334E-2,-9.667206E-2,8.5627615E-2,-8.375043E-3,-3.4882044E-3,6.5031336E-3,-0E0,-5.447004E-3,-1.6048882E-3,1.2833094E-3,5.185581E-3],"categories":[],"categories_nodes":[],"categories_segments":[],"categories_sizes":[],"default_left":[0,0,0,0,0,0,0,0,0,0,0,0,0,0,0],"id":69,"left_children":[1,3,5,7,9,11,13,-1,-1,-1,-1,-1,-1,-1,-1],"loss_changes":[8.16327E0,2.5010505E0,5.92848E0,1.0800314E0,4.1315365E-1,5.566025E-1,3.2640848E0,0E0,0E0,0E0,0E0,0E0,0E0,0E0,0E0],"parents":[2147483647,0,0,1,1,2,2,3,3,4,4,5,5,6,6],"right_children":[2,4,6,8,10,12,14,-1,-1,-1,-1,-1,-1,-1,-1],"split_conditions":[2E0,5E0,3E0,4E0,4E0,2E0,4E0,-8.375043E-3,-3.4882044E-3,6.5031336E-3,-0E0,-5.447004E-3,-1.6048882E-3,1.2833094E-3,5.185581E-3],"split_indices":[6,4,2,12,2,13,4,0,0,0,0,0,0,0,0],"split_type":[0,0,0,0,0,0,0,0,0,0,0,0,0,0,0],"sum_hessian":[1.412E3,2.65E2,1.147E3,2.29E2,3.6E1,2.16E2,9.31E2,8.9E1,1.4E2,1.4E1,2.2E1,6.5E1,1.51E2,6.32E2,2.99E2],"tree_param":{"num_deleted":"0","num_feature":"15","num_nodes":"15","size_leaf_vector":"1"}},{"base_weights":[-2.844358E-3,-1.0431785E-1,5.6957383E-2,-1.4517981E-1,2.4809731E-2,-1.6775284E-2,1.2315436E-1,-8.00791E-3,-2.391763E-3,-1.3465393E-2,1.8711718E-3,-1.5891871E-3,2.8988179E-3,2.4358404E-3,7.832038E-3],"categories":[],"categories_nodes":[],"categories_segments":[],"categories_sizes":[],"default_left":[0,0,0,0,0,0,0,0,0,0,0,0,0,0,0],"id":70,"left_children":[1,3,5,7,9,11,13,-1,-1,-1,-1,-1,-1,-1,-1],"loss_changes":[8.652317E0,2.927507E0,4.4309072E0,2.9205456E0,1.7845819E0,1.6476578E0,2.4005313E0,0E0,0E0,0E0,0E0,0E0,0E0,0E0,0E0],"parents":[2147483647,0,0,1,1,2,2,3,3,4,4,5,5,6,6],"right_children":[2,4,6,8,10,12,14,-1,-1,-1,-1,-1,-1,-1,-1],"split_conditions":[3E0,4E0,4E0,2E0,3E0,5E0,5E0,-8.00791E-3,-2.391763E-3,-1.3465393E-2,1.8711718E-3,-1.5891871E-3,2.8988179E-3,2.4358404E-3,7.832038E-3],"split_indices":[10,4,2,6,7,10,6,0,0,0,0,0,0,0,0],"split_type":[0,0,0,0,0,0,0,0,0,0,0,0,0,0,0],"sum_hessian":[1.418E3,5.32E2,8.86E2,4.1E2,1.22E2,4.12E2,4.74E2,1.38E2,2.72E2,7E0,1.15E2,3.19E2,9.3E1,3.69E2,1.05E2],"tree_param":{"num_deleted":"0","num_feature":"15","num_nodes":"15","size_leaf_vector":"1"}},{"base_weights":[-3.4525995E-3,-1.5772292E-1,4.0218934E-2,-3.3068803E-1,-1.0231965E-1,-4.559701E-2,8.9821324E-2,-2.623926E-3,-1.1931589E-2,-5.8471016E-3,-4.8393934E-4,-4.730925E-3,8.512512E-5,1.5160484E-3,6.0284953E-3],"categories":[],"categories_nodes":[],"categories_segments":[],"categories_sizes":[],"default_left":[0,0,0,0,0,0,0,0,0,0,0,0,0,0,0],"id":71,"left_children":[1,3,5,7,9,11,13,-1,-1,-1,-1,-1,-1,-1,-1],"loss_changes":[9.7047E0,2.623674E0,4.743678E0,7.048001E-1,1.7520044E0,2.3104432E0,2.8351045E0,0E0,0E0,0E0,0E0,0E0,0E0,0E0,0E0],"parents":[2147483647,0,0,1,1,2,2,3,3,4,4,5,5,6,6],"right_children":[2,4,6,8,10,12,14,-1,-1,-1,-1,-1,-1,-1,-1],"split_conditions":[3E0,3E0,4E0,1E0,4E0,3E0,4E0,-2.623926E-3,-1.1931589E-2,-5.8471016E-3,-4.8393934E-4,-4.730925E-3,8.512512E-5,1.5160484E-3,6.0284953E-3],"split_indices":[2,3,12,14,8,9,13,0,0,0,0,0,0,0,0],"split_type":[0,0,0,0,0,0,0,0,0,0,0,0,0,0,0],"sum_hessian":[1.423E3,3.19E2,1.104E3,7.3E1,2.46E2,3.97E2,7.07E2,1.9E1,5.4E1,1.13E2,1.33E2,1.26E2,2.71E2,5.29E2,1.78E2],"tree_param":{"num_deleted":"0","num_feature":"15","num_nodes":"15","size_leaf_vector":"1"}},{"base_weights":[8.209889E-3,-1.3126184E-1,4.9997296E-2,-0E0,-1.719759E-1,-4.4154655E-2,1.0023181E-1,-8.200037E-3,1.6035741E-3,-6.2389583E-3,-6.9931004E-4,-4.3796995E-3,-0E0,1.1878411E-3,5.0485968E-3],"categories":[],"categories_nodes":[],"categories_segments":[],"categories_sizes":[],"default_left":[0,0,0,0,0,0,0,0,0,0,0,0,0,0,0],"id":72,"left_children":[1,3,5,7,9,11,13,-1,-1,-1,-1,-1,-1,-1,-1],"loss_changes":[8.148224E0,1.5552235E0,5.2209764E0,1.3818803E0,1.0474715E0,1.745297E0,2.75915E0,0E0,0E0,0E0,0E0,0E0,0E0,0E0,0E0],"parents":[2147483647,0,0,1,1,2,2,3,3,4,4,5,5,6,6],"right_children":[2,4,6,8,10,12,14,-1,-1,-1,-1,-1,-1,-1,-1],"split_conditions":[3E0,1E0,4E0,2E0,4E0,3E0,3E0,-8.200037E-3,1.6035741E-3,-6.2389583E-3,-6.9931004E-4,-4.3796995E-3,-0E0,1.1878411E-3,5.0485968E-3],"split_indices":[2,14,12,1,1,9,13,0,0,0,0,0,0,0,0],"split_type":[0,0,0,0,0,0,0,0,0,0,0,0,0,0,0],"sum_hessian":[1.412E3,3.2E2,1.092E3,8.1E1,2.39E2,3.73E2,7.19E2,1.6E1,6.5E1,1.87E2,5.2E1,1.16E2,2.57E2,3.88E2,3.31E2],"tree_param":{"num_deleted":"0","num_feature":"15","num_nodes":"15","size_leaf_vector":"1"}},{"base_weights":[1.3681274E-4,-9.103944E-2,6.6057526E-2,-2.8149956E-1,-5.7598375E-2,-5.5015627E-2,1.16749845E-1,-1.253223E-2,-5.0782384E-3,-3.8919465E-3,-3.9933853E-5,-3.2202925E-3,2.075075E-3,-2.8624275E-4,4.47122E-3],"categories":[],"categories_nodes":[],"categories_segments":[],"categories_sizes":[],"default_left":[0,0,0,0,0,0,0,0,0,0,0,0,0,0,0],"id":73,"left_children":[1,3,5,7,9,11,13,-1,-1,-1,-1,-1,-1,-1,-1],"loss_changes":[8.3596525E0,3.3485646E0,5.0700426E0,6.661849E-1,1.8861675E0,1.5654075E0,2.5089016E0,0E0,0E0,0E0,0E0,0E0,0E0,0E0,0E0],"parents":[2147483647,0,0,1,1,2,2,3,3,4,4,5,5,6,6],"right_children":[2,4,6,8,10,12,14,-1,-1,-1,-1,-1,-1,-1,-1],"split_conditions":[3E0,3E0,4E0,2E0,4E0,5E0,4E0,-1.253223E-2,-5.0782384E-3,-3.8919465E-3,-3.9933853E-5,-3.2202925E-3,2.075075E-3,-2.8624275E-4,4.47122E-3],"split_indices":[6,3,11,13,8,5,7,0,0,0,0,0,0,0,0],"split_type":[0,0,0,0,0,0,0,0,0,0,0,0,0,0,0],"sum_hessian":[1.395E3,5.79E2,8.16E2,8.2E1,4.97E2,2.35E2,5.81E2,3.3E1,4.9E1,2.1E2,2.87E2,1.71E2,6.4E1,1.12E2,4.69E2],"tree_param":{"num_deleted":"0","num_feature":"15","num_nodes":"15","size_leaf_vector":"1"}},{"base_weights":[6.6719796E-3,-1.5332234E-1,3.630038E-2,-1.9666928E-1,-0E0,8.218038E-3,1.6178069E-1,-7.548877E-3,-2.96078E-3,-9.251759E-3,2.6864205E-3,-1.7737534E-3,1.7127561E-3,2.2465992E-3,9.7445855E-3],"categories":[],"categories_nodes":[],"categories_segments":[],"categories_sizes":[],"default_left":[0,0,0,0,0,0,0,0,0,0,0,0,0,0,0],"id":74,"left_children":[1,3,5,7,9,11,13,-1,-1,-1,-1,-1,-1,-1,-1],"loss_changes":[6.505386E0,1.6070795E0,4.00218E0,5.7028294E-1,9.47426E-1,3.2037773E0,2.575284E0,0E0,0E0,0E0,0E0,0E0,0E0,0E0,0E0],"parents":[2147483647,0,0,1,1,2,2,3,3,4,4,5,5,6,6],"right_children":[2,4,6,8,10,12,14,-1,-1,-1,-1,-1,-1,-1,-1],"split_conditions":[3E0,5E0,5E0,3E0,3E0,4E0,5E0,-7.548877E-3,-2.96078E-3,-9.251759E-3,2.6864205E-3,-1.7737534E-3,1.7127561E-3,2.2465992E-3,9.7445855E-3],"split_indices":[0,8,2,9,7,8,11,0,0,0,0,0,0,0,0],"split_type":[0,0,0,0,0,0,0,0,0,0,0,0,0,0,0],"sum_hessian":[1.397E3,2.13E2,1.184E3,1.71E2,4.2E1,9.74E2,2.1E2,1.03E2,6.8E1,7E0,3.5E1,4.01E2,5.73E2,1.41E2,6.9E1],"tree_param":{"num_deleted":"0","num_feature":"15","num_nodes":"15","size_leaf_vector":"1"}},{"base_weights":[2.5950994E-3,-8.4466875E-2,6.883195E-2,-2.0443743E-1,-1.79816E-2,-1.7739847E-2,1.1629088E-1,-1.2593823E-2,-5.015343E-3,-5.7585705E-3,8.1157545E-5,-2.7239686E-3,2.332582E-3,6.247453E-4,4.8159864E-3],"categories":[],"categories_nodes":[],"categories_segments":[],"categories_sizes":[],"default_left":[0,0,0,0,0,0,0,0,0,0,0,0,0,0,0],"id":75,"left_children":[1,3,5,7,9,11,13,-1,-1,-1,-1,-1,-1,-1,-1],"loss_changes":[8.132844E0,4.595294E0,3.4224741E0,1.097455E0,1.6072577E0,1.9596586E0,2.0571628E0,0E0,0E0,0E0,0E0,0E0,0E0,0E0,0E0],"parents":[2147483647,0,0,1,1,2,2,3,3,4,4,5,5,6,6],"right_children":[2,4,6,8,10,12,14,-1,-1,-1,-1,-1,-1,-1,-1],"split_conditions":[4E0,3E0,3E0,2E0,2E0,4E0,4E0,-1.2593823E-2,-5.015343E-3,-5.7585705E-3,8.1157545E-5,-2.7239686E-3,2.332582E-3,6.247453E-4,4.8159864E-3],"split_indices":[3,5,10,0,6,9,8,0,0,0,0,0,0,0,0],"split_type":[0,0,0,0,0,0,0,0,0,0,0,0,0,0,0],"sum_hessian":[1.413E3,6.04E2,8.09E2,2.1E2,3.94E2,2.79E2,5.3E2,2.7E1,1.83E2,4.7E1,3.47E2,1.64E2,1.15E2,1.75E2,3.55E2],"tree_param":{"num_deleted":"0","num_feature":"15","num_nodes":"15","size_leaf_vector":"1"}},{"base_weights":[-0E0,-7.1332596E-2,7.341932E-2,-1.9377361E-1,-3.2200936E-2,3.2616504E-2,1.8689196E-1,-6.683006E-3,9.4270747E-4,-2.4482869E-3,1.2734025E-3,-2.2296326E-3,2.3956723E-3,6.700581E-4,6.7048897E-3],"categories":[],"categories_nodes":[],"categories_segments":[],"categories_sizes":[],"default_left":[0,0,0,0,0,0,0,0,0,0,0,0,0,0,0],"id":76,"left_children":[1,3,5,7,9,11,13,-1,-1,-1,-1,-1,-1,-1,-1],"loss_changes":[7.3372874E0,3.1806397E0,2.9751792E0,1.2753267E0,2.0493245E0,2.6021934E0,8.143134E-1,0E0,0E0,0E0,0E0,0E0,0E0,0E0,0E0],"parents":[2147483647,0,0,1,1,2,2,3,3,4,4,5,5,6,6],"right_children":[2,4,6,8,10,12,14,-1,-1,-1,-1,-1,-1,-1,-1],"split_conditions":[4E0,2E0,4E0,5E0,4E0,4E0,4E0,-6.683006E-3,9.4270747E-4,-2.4482869E-3,1.2734025E-3,-2.2296326E-3,2.3956723E-3,6.700581E-4,6.7048897E-3],"split_indices":[2,6,13,13,5,3,12,0,0,0,0,0,0,0,0],"split_type":[0,0,0,0,0,0,0,0,0,0,0,0,0,0,0],"sum_hessian":[1.401E3,7.11E2,6.9E2,1.66E2,5.45E2,5.14E2,1.76E2,1.51E2,1.5E1,3.36E2,2.09E2,1.51E2,3.63E2,3.7E1,1.39E2],"tree_param":{"num_deleted":"0","num_feature":"15","num_nodes":"15","size_leaf_vector":"1"}},{"base_weights":[-3.751077E-3,-9.661992E-2,5.4707464E-2,-1.7663619E-1,-2.7031947E-2,-1.5630573E-2,1.3671772E-1,-7.7300817E-3,-3.652115E-3,-4.7038123E-3,-0E0,-1.2757443E-2,-7.074252E-5,9.428978E-4,6.0626427E-3],"categories":[],"categories_nodes":[],"categories_segments":[],"categories_sizes":[],"default_left":[0,0,0,0,0,0,0,0,0,0,0,0,0,0,0],"id":77,"left_children":[1,3,5,7,9,11,13,-1,-1,-1,-1,-1,-1,-1,-1],"loss_changes":[7.73488E0,2.881106E0,5.0993304E0,7.369342E-1,1.1801325E0,2.0624213E0,2.5539808E0,0E0,0E0,0E0,0E0,0E0,0E0,0E0,0E0],"parents":[2147483647,0,0,1,1,2,2,3,3,4,4,5,5,6,6],"right_children":[2,4,6,8,10,12,14,-1,-1,-1,-1,-1,-1,-1,-1],"split_conditions":[3E0,4E0,3E0,2E0,3E0,2E0,4E0,-7.7300817E-3,-3.652115E-3,-4.7038123E-3,-0E0,-1.2757443E-2,-7.074252E-5,9.428978E-4,6.0626427E-3],"split_indices":[10,3,13,6,1,11,3,0,0,0,0,0,0,0,0],"split_type":[0,0,0,0,0,0,0,0,0,0,0,0,0,0,0],"sum_hessian":[1.417E3,5.54E2,8.63E2,2.51E2,3.03E2,4.58E2,4.05E2,9.4E1,1.57E2,5.7E1,2.46E2,1.2E1,4.46E2,1.61E2,2.44E2],"tree_param":{"num_deleted":"0","num_feature":"15","num_nodes":"15","size_leaf_vector":"1"}},{"base_weights":[2.169612E-3,-1.554195E-1,4.0257555E-2,-1.9961917E-1,-2.6618866E-2,-3.763472E-2,9.534437E-2,-6.779695E-3,-1.3245736E-5,-5.0534047E-3,-0E0,-4.733083E-3,-0E0,4.8930612E-3,1.4980257E-3],"categories":[],"categories_nodes":[],"categories_segments":[],"categories_sizes":[],"default_left":[0,0,0,0,0,0,0,0,0,0,0,0,0,0,0],"id":78,"left_children":[1,3,5,7,9,11,13,-1,-1,-1,-1,-1,-1,-1,-1],"loss_changes":[8.276099E0,1.2937832E0,4.910725E0,7.8734255E-1,4.302065E-1,2.0106447E0,1.8484278E0,0E0,0E0,0E0,0E0,0E0,0E0,0E0,0E0],"parents":[2147483647,0,0,1,1,2,2,3,3,4,4,5,5,6,6],"right_children":[2,4,6,8,10,12,14,-1,-1,-1,-1,-1,-1,-1,-1],"split_conditions":[2E0,5E0,4E0,5E0,2E0,3E0,1E0,-6.779695E-3,-1.3245736E-5,-5.0534047E-3,-0E0,-4.733083E-3,-0E0,4.8930612E-3,1.4980257E-3],"split_indices":[6,8,8,2,5,2,14,0,0,0,0,0,0,0,0],"split_type":[0,0,0,0,0,0,0,0,0,0,0,0,0,0,0],"sum_hessian":[1.398E3,2.67E2,1.131E3,1.93E2,7.4E1,4.61E2,6.7E2,1.66E2,2.7E1,1.7E1,5.7E1,1.07E2,3.54E2,2.6E2,4.1E2],"tree_param":{"num_deleted":"0","num_feature":"15","num_nodes":"15","size_leaf_vector":"1"}},{"base_weights":[7.1096234E-4,-6.777209E-2,6.594933E-2,-4.1089118E-1,-5.362381E-2,2.1602701E-2,1.6404313E-1,-4.1715376E-4,-1.5463882E-2,-2.2085677E-3,3.819301E-3,-1.9607078E-3,2.163257E-3,3.6809276E-4,6.815615E-3],"categories":[],"categories_nodes":[],"categories_segments":[],"categories_sizes":[],"default_left":[0,0,0,0,0,0,0,0,0,0,0,0,0,0,0],"id":79,"left_children":[1,3,5,7,9,11,13,-1,-1,-1,-1,-1,-1,-1,-1],"loss_changes":[6.266481E0,2.821839E0,2.9725564E0,4.6729898E-1,2.308858E0,2.2335722E0,1.859416E0,0E0,0E0,0E0,0E0,0E0,0E0,0E0,0E0],"parents":[2147483647,0,0,1,1,2,2,3,3,4,4,5,5,6,6],"right_children":[2,4,6,8,10,12,14,-1,-1,-1,-1,-1,-1,-1,-1],"split_conditions":[4E0,2E0,5E0,2E0,5E0,3E0,4E0,-4.1715376E-4,-1.5463882E-2,-2.2085677E-3,3.819301E-3,-1.9607078E-3,2.163257E-3,3.6809276E-4,6.815615E-3],"split_indices":[1,8,11,9,13,10,12,0,0,0,0,0,0,0,0],"split_type":[0,0,0,0,0,0,0,0,0,0,0,0,0,0,0],"sum_hessian":[1.403E3,6.77E2,7.26E2,2.4E1,6.53E2,5.07E2,2.19E2,7E0,1.7E1,5.93E2,6E1,1.79E2,3.28E2,6.9E1,1.5E2],"tree_param":{"num_deleted":"0","num_feature":"15","num_nodes":"15","size_leaf_vector":"1"}},{"base_weights":[2.9431465E-3,-4.078139E-2,1.24838695E-1,-2.3156978E-1,-1.4865502E-2,-5.993924E-2,1.5587083E-1,-9.405662E-4,-8.585314E-3,-6.378608E-3,2.4990074E-4,-7.2682486E-3,1.5492592E-3,6.323278E-3,2.9273531E-3],"categories":[],"categories_nodes":[],"categories_segments":[],"categories_sizes":[],"default_left":[0,0,0,0,0,0,0,0,0,0,0,0,0,0,0],"id":80,"left_children":[1,3,5,7,9,11,13,-1,-1,-1,-1,-1,-1,-1,-1],"loss_changes":[7.49262E0,4.782085E0,2.2348838E0,9.616933E-1,4.332678E0,1.1878785E0,7.284498E-1,0E0,0E0,0E0,0E0,0E0,0E0,0E0,0E0],"parents":[2147483647,0,0,1,1,2,2,3,3,4,4,5,5,6,6],"right_children":[2,4,6,8,10,12,14,-1,-1,-1,-1,-1,-1,-1,-1],"split_conditions":[5E0,3E0,3E0,1E0,3E0,4E0,1E0,-9.405662E-4,-8.585314E-3,-6.378608E-3,2.4990074E-4,-7.2682486E-3,1.5492592E-3,6.323278E-3,2.9273531E-3],"split_indices":[0,3,12,14,8,9,14,0,0,0,0,0,0,0,0],"split_type":[0,0,0,0,0,0,0,0,0,0,0,0,0,0,0],"sum_hessian":[1.39E3,1.017E3,3.73E2,1.17E2,9E2,4.9E1,3.24E2,2.9E1,8.8E1,9.9E1,8.01E2,2.2E1,2.7E1,1.58E2,1.66E2],"tree_param":{"num_deleted":"0","num_feature":"15","num_nodes":"15","size_leaf_vector":"1"}},{"base_weights":[4.8531657E-3,-5.9985187E-2,6.0476974E-2,-1.6149853E-1,-1.7659063E-3,-3.0116318E-3,1.2327586E-1,-6.3561196E-3,-1.5732347E-3,-1.1290467E-3,6.1405334E-3,-2.4364626E-3,5.1029486E-4,-2.1451167E-3,4.230229E-3],"categories":[],"categories_nodes":[],"categories_segments":[],"categories_sizes":[],"default_left":[0,0,0,0,0,0,0,0,0,0,0,0,0,0,0],"id":81,"left_children":[1,3,5,7,9,11,13,-1,-1,-1,-1,-1,-1,-1,-1],"loss_changes":[5.0641685E0,3.6192136E0,3.1663861E0,9.826455E-1,2.8914347E0,6.466956E-1,1.4235263E0,0E0,0E0,0E0,0E0,0E0,0E0,0E0,0E0],"parents":[2147483647,0,0,1,1,2,2,3,3,4,4,5,5,6,6],"right_children":[2,4,6,8,10,12,14,-1,-1,-1,-1,-1,-1,-1,-1],"split_conditions":[3E0,4E0,4E0,4E0,5E0,3E0,3E0,-6.3561196E-3,-1.5732347E-3,-1.1290467E-3,6.1405334E-3,-2.4364626E-3,5.1029486E-4,-2.1451167E-3,4.230229E-3],"split_indices":[4,11,9,8,5,5,8,0,0,0,0,0,0,0,0],"split_type":[0,0,0,0,0,0,0,0,0,0,0,0,0,0,0],"sum_hessian":[1.404E3,6.4E2,7.64E2,2.27E2,4.13E2,3.72E2,3.92E2,1.49E2,7.8E1,3.56E2,5.7E1,8.6E1,2.86E2,2.8E1,3.64E2],"tree_param":{"num_deleted":"0","num_feature":"15","num_nodes":"15","size_leaf_vector":"1"}},{"base_weights":[-8.168244E-3,-4.8301063E-2,9.528548E-2,-6.4099566E-3,-2.5798073E-2,-4.358466E-2,1.4674371E-1,-6.649549E-3,-4.40236E-5,-4.3337396E-3,-0E0,1.2878763E-3,5.196295E-3],"categories":[],"categories_nodes":[],"categories_segments":[],"categories_sizes":[],"default_left":[0,0,0,0,0,0,0,0,0,0,0,0,0],"id":82,"left_children":[1,3,5,-1,7,9,11,-1,-1,-1,-1,-1,-1],"loss_changes":[5.894457E0,3.6231122E0,2.9116771E0,0E0,4.1561794E0,4.7610742E-1,5.861039E-1,0E0,0E0,0E0,0E0,0E0,0E0],"parents":[2147483647,0,0,1,1,2,2,4,4,5,5,6,6],"right_children":[2,4,6,-1,8,10,12,-1,-1,-1,-1,-1,-1],"split_conditions":[5E0,3E0,2E0,-6.4099566E-3,3E0,3E0,4E0,-6.649549E-3,-4.40236E-5,-4.3337396E-3,-0E0,1.2878763E-3,5.196295E-3],"split_indices":[0,8,13,0,3,9,11,0,0,0,0,0,0],"split_type":[0,0,0,0,0,0,0,0,0,0,0,0,0],"sum_hessian":[1.431E3,1.038E3,3.93E2,1.19E2,9.19E2,1.01E2,2.92E2,9.7E1,8.22E2,3.2E1,6.9E1,6.7E1,2.25E2],"tree_param":{"num_deleted":"0","num_feature":"15","num_nodes":"13","size_leaf_vector":"1"}},{"base_weights":[-2.2725714E-3,-7.646017E-2,5.1901873E-2,-1.3014936E-1,3.6057178E-2,-4.300208E-2,9.741806E-2,-5.318119E-3,-1.992716E-3,-3.4502125E-3,1.9078612E-3,-1.038096E-2,-0E0,1.5505563E-3,5.599811E-3],"categories":[],"categories_nodes":[],"categories_segments":[],"categories_sizes":[],"default_left":[0,0,0,0,0,0,0,0,0,0,0,0,0,0,0],"id":83,"left_children":[1,3,5,7,9,11,13,-1,-1,-1,-1,-1,-1,-1,-1],"loss_changes":[5.7879868E0,3.7973123E0,3.6009474E0,1.0204086E0,7.474302E-1,3.4736016E0,2.0552926E0,0E0,0E0,0E0,0E0,0E0,0E0,0E0,0E0],"parents":[2147483647,0,0,1,1,2,2,3,3,4,4,5,5,6,6],"right_children":[2,4,6,8,10,12,14,-1,-1,-1,-1,-1,-1,-1,-1],"split_conditions":[4E0,4E0,4E0,3E0,3E0,2E0,5E0,-5.318119E-3,-1.992716E-3,-3.4502125E-3,1.9078612E-3,-1.038096E-2,-0E0,1.5505563E-3,5.599811E-3],"split_indices":[3,6,12,4,0,4,5,0,0,0,0,0,0,0,0],"split_type":[0,0,0,0,0,0,0,0,0,0,0,0,0,0,0],"sum_hessian":[1.434E3,6.13E2,8.21E2,4.21E2,1.92E2,2.59E2,5.62E2,2.33E2,1.88E2,2.4E1,1.68E2,3.3E1,2.26E2,3.79E2,1.83E2],"tree_param":{"num_deleted":"0","num_feature":"15","num_nodes":"15","size_leaf_vector":"1"}},{"base_weights":[8.290949E-3,-1.15145765E-1,3.7640665E-2,-9.404117E-3,-7.807562E-2,-5.8812834E-2,7.1577996E-2,-3.0970569E-3,1.413291E-3,-2.4816198E-3,5.9236926E-3,-1.2609997E-4,3.466313E-3],"categories":[],"categories_nodes":[],"categories_segments":[],"categories_sizes":[],"default_left":[0,0,0,0,0,0,0,0,0,0,0,0,0],"id":84,"left_children":[1,3,5,-1,7,9,11,-1,-1,-1,-1,-1,-1],"loss_changes":[4.987294E0,1.534488E0,3.7313929E0,0E0,7.6486874E-1,1.6500189E0,2.9367318E0,0E0,0E0,0E0,0E0,0E0,0E0],"parents":[2147483647,0,0,1,1,2,2,4,4,5,5,6,6],"right_children":[2,4,6,-1,8,10,12,-1,-1,-1,-1,-1,-1],"split_conditions":[2E0,2E0,4E0,-9.404117E-3,5E0,5E0,4E0,-3.0970569E-3,1.413291E-3,-2.4816198E-3,5.9236926E-3,-1.2609997E-4,3.466313E-3],"split_indices":[6,0,7,0,4,13,0,0,0,0,0,0,0],"split_type":[0,0,0,0,0,0,0,0,0,0,0,0,0],"sum_hessian":[1.398E3,2.62E2,1.136E3,3.7E1,2.25E2,2.88E2,8.48E2,1.94E2,3.1E1,2.67E2,2.1E1,3.03E2,5.45E2],"tree_param":{"num_deleted":"0","num_feature":"15","num_nodes":"13","size_leaf_vector":"1"}},{"base_weights":[-1.1726042E-2,-4.954807E-2,8.662595E-2,-1.295626E-1,-1.2621616E-2,-1.5318234E-2,1.2934078E-1,-7.883068E-3,-2.6448723E-3,-1.3999331E-3,2.9688634E-3,2.6277876E-3,-3.0846344E-3,1.2360621E-4,5.2482127E-3],"categories":[],"categories_nodes":[],"categories_segments":[],"categories_sizes":[],"default_left":[0,0,0,0,0,0,0,0,0,0,0,0,0,0,0],"id":85,"left_children":[1,3,5,7,9,11,13,-1,-1,-1,-1,-1,-1,-1,-1],"loss_changes":[5.137344E0,2.8479376E0,1.7644525E0,1.3639846E0,2.6106226E0,9.6093607E-1,1.3855338E0,0E0,0E0,0E0,0E0,0E0,0E0,0E0,0E0],"parents":[2147483647,0,0,1,1,2,2,3,3,4,4,5,5,6,6],"right_children":[2,4,6,8,10,12,14,-1,-1,-1,-1,-1,-1,-1,-1],"split_conditions":[5E0,3E0,2E0,2E0,5E0,1E0,4E0,-7.883068E-3,-2.6448723E-3,-1.3999331E-3,2.9688634E-3,2.6277876E-3,-3.0846344E-3,1.2360621E-4,5.2482127E-3],"split_indices":[0,1,13,10,11,14,12,0,0,0,0,0,0,0,0],"split_type":[0,0,0,0,0,0,0,0,0,0,0,0,0,0,0],"sum_hessian":[1.391E3,1.012E3,3.79E2,3.11E2,7.01E2,1.05E2,2.74E2,6.8E1,2.43E2,5.44E2,1.57E2,4.3E1,6.2E1,7.9E1,1.95E2],"tree_param":{"num_deleted":"0","num_feature":"15","num_nodes":"15","size_leaf_vector":"1"}},{"base_weights":[8.533722E-4,-6.395829E-2,5.5875637E-2,-1.5337968E-1,-1.3393017E-2,1.3623674E-1,9.33701E-3,-5.200322E-3,-0E0,-4.5529883E-3,2.414444E-4,-0E0,4.7365935E-3,-7.795356E-4,3.5673575E-3],"categories":[],"categories_nodes":[],"categories_segments":[],"categories_sizes":[],"default_left":[0,0,0,0,0,0,0,0,0,0,0,0,0,0,0],"id":86,"left_children":[1,3,5,7,9,11,13,-1,-1,-1,-1,-1,-1,-1,-1],"loss_changes":[5.1128855E0,2.7768252E0,2.7902687E0,5.858269E-1,1.398752E0,7.6096106E-1,2.0475256E0,0E0,0E0,0E0,0E0,0E0,0E0,0E0,0E0],"parents":[2147483647,0,0,1,1,2,2,3,3,4,4,5,5,6,6],"right_children":[2,4,6,8,10,12,14,-1,-1,-1,-1,-1,-1,-1,-1],"split_conditions":[3E0,4E0,1E0,5E0,2E0,3E0,5E0,-5.200322E-3,-0E0,-4.5529883E-3,2.414444E-4,-0E0,4.7365935E-3,-7.795356E-4,3.5673575E-3],"split_indices":[4,11,14,8,10,12,1,0,0,0,0,0,0,0,0],"split_type":[0,0,0,0,0,0,0,0,0,0,0,0,0,0,0],"sum_hessian":[1.436E3,6.51E2,7.85E2,2.28E2,4.23E2,2.8E2,5.05E2,1.98E2,3E1,6.3E1,3.6E2,4.1E1,2.39E2,3.75E2,1.3E2],"tree_param":{"num_deleted":"0","num_feature":"15","num_nodes":"15","size_leaf_vector":"1"}},{"base_weights":[4.7720526E-3,-6.0955964E-2,6.274526E-2,-1.1952324E-1,-7.5323465E-3,-6.4298294E-2,9.1491975E-2,-7.378566E-3,-1.9763294E-3,-1.7567228E-3,2.1273906E-3,-0E0,-3.3778911E-3,9.01658E-4,4.628799E-3],"categories":[],"categories_nodes":[],"categories_segments":[],"categories_sizes":[],"default_left":[0,0,0,0,0,0,0,0,0,0,0,0,0,0,0],"id":87,"left_children":[1,3,5,7,9,11,13,-1,-1,-1,-1,-1,-1,-1,-1],"loss_changes":[5.4012923E0,1.9255092E0,2.8065257E0,1.7499127E0,1.39667E0,4.8568457E-1,2.2348018E0,0E0,0E0,0E0,0E0,0E0,0E0,0E0,0E0],"parents":[2147483647,0,0,1,1,2,2,3,3,4,4,5,5,6,6],"right_children":[2,4,6,8,10,12,14,-1,-1,-1,-1,-1,-1,-1,-1],"split_conditions":[4E0,3E0,4E0,3E0,4E0,4E0,4E0,-7.378566E-3,-1.9763294E-3,-1.7567228E-3,2.1273906E-3,-0E0,-3.3778911E-3,9.01658E-4,4.628799E-3],"split_indices":[5,10,7,0,2,0,6,0,0,0,0,0,0,0,0],"split_type":[0,0,0,0,0,0,0,0,0,0,0,0,0,0,0],"sum_hessian":[1.417E3,6.56E2,7.61E2,3.04E2,3.52E2,1.34E2,6.27E2,8.5E1,2.19E2,2.21E2,1.31E2,5.2E1,8.2E1,3.25E2,3.02E2],"tree_param":{"num_deleted":"0","num_feature":"15","num_nodes":"15","size_leaf_vector":"1"}},{"base_weights":[-8.95165E-3,7.4943304E-2,-5.1782917E-2,-1.6448052E-1,9.417524E-2,-1.19292945E-1,1.678304E-2,-7.1873465E-3,-0E0,-0E0,4.156919E-3,-6.1116805E-3,-1.4787391E-3,-8.6089084E-4,4.316953E-3],"categories":[],"categories_nodes":[],"categories_segments":[],"categories_sizes":[],"default_left":[0,0,0,0,0,0,0,0,0,0,0,0,0,0,0],"id":88,"left_children":[1,3,5,7,9,11,13,-1,-1,-1,-1,-1,-1,-1,-1],"loss_changes":[5.0470986E0,2.0894465E0,4.4629908E0,5.391797E-1,1.7218835E0,2.5956707E0,2.7746222E0,0E0,0E0,0E0,0E0,0E0,0E0,0E0,0E0],"parents":[2147483647,0,0,1,1,2,2,3,3,4,4,5,5,6,6],"right_children":[2,4,6,8,10,12,14,-1,-1,-1,-1,-1,-1,-1,-1],"split_conditions":[1E0,2E0,4E0,4E0,4E0,3E0,5E0,-7.1873465E-3,-0E0,-0E0,4.156919E-3,-6.1116805E-3,-1.4787391E-3,-8.6089084E-4,4.316953E-3],"split_indices":[14,1,1,9,12,10,12,0,0,0,0,0,0,0,0],"split_type":[0,0,0,0,0,0,0,0,0,0,0,0,0,0,0],"sum_hessian":[1.411E3,4.69E2,9.42E2,3.1E1,4.38E2,4.82E2,4.6E2,2.4E1,7E0,1.46E2,2.92E2,2.12E2,2.7E2,3.33E2,1.27E2],"tree_param":{"num_deleted":"0","num_feature":"15","num_nodes":"15","size_leaf_vector":"1"}},{"base_weights":[-2.69014E-3,-7.61444E-2,3.164342E-2,-1.5862235E-1,4.4993246E-3,1.253782E-4,1.193658E-1,-8.95132E-3,-4.053041E-3,-2.637566E-3,1.5883667E-3,-2.7406916E-3,6.118357E-4,1.724585E-3,7.7855033E-3],"categories":[],"categories_nodes":[],"categories_segments":[],"categories_sizes":[],"default_left":[0,0,0,0,0,0,0,0,0,0,0,0,0,0,0],